<?xml version="1.0" encoding="UTF-8" standalone="yes"?>
<PMML xmlns="http://www.dmg.org/PMML-4_3" version="4.3">
	<Header>
		<Application name="JPMML-R" version="1.2.16"/>
		<Timestamp>2017-09-27T04:24:41Z</Timestamp>
	</Header>
	<DataDictionary>
		<DataField name="label" optype="categorical" dataType="string">
			<Value value="0"/>
			<Value value="1"/>
		</DataField>
		<DataField name="Current_Residence_Province_area1" optype="continuous" dataType="double"/>
		<DataField name="Current_Residence_Province_area2" optype="continuous" dataType="double"/>
		<DataField name="Current_Residence_Province_area3" optype="continuous" dataType="double"/>
		<DataField name="Current_Residence_Province_ELSE" optype="continuous" dataType="double"/>
		<DataField name="age_21...30" optype="continuous" dataType="double"/>
		<DataField name="age_31...40" optype="continuous" dataType="double"/>
		<DataField name="age_41...50" optype="continuous" dataType="double"/>
		<DataField name="age_51...65" optype="continuous" dataType="double"/>
		<DataField name="SEX_男性" optype="continuous" dataType="double"/>
		<DataField name="SEX_女性" optype="continuous" dataType="double"/>
		<DataField name="Marital_Status_离婚" optype="continuous" dataType="double"/>
		<DataField name="Marital_Status_未婚" optype="continuous" dataType="double"/>
		<DataField name="Marital_Status_已婚" optype="continuous" dataType="double"/>
		<DataField name="work_time_.4.6." optype="continuous" dataType="double"/>
		<DataField name="work_time_.6.12." optype="continuous" dataType="double"/>
		<DataField name="work_time_..4" optype="continuous" dataType="double"/>
		<DataField name="work_time_..12" optype="continuous" dataType="double"/>
		<DataField name="month3_all_number.f_.1" optype="continuous" dataType="double"/>
		<DataField name="month3_all_number.f_.2" optype="continuous" dataType="double"/>
		<DataField name="month3_all_number.f_ELSE" optype="continuous" dataType="double"/>
		<DataField name="month3_org_number.f_.1" optype="continuous" dataType="double"/>
		<DataField name="month3_org_number.f_.2" optype="continuous" dataType="double"/>
		<DataField name="cnt_inq_app_12mth.f_.1" optype="continuous" dataType="double"/>
		<DataField name="cnt_inq_app_12mth.f_.12" optype="continuous" dataType="double"/>
		<DataField name="cnt_inq_app_12mth.f_.2" optype="continuous" dataType="double"/>
		<DataField name="cnt_inq_app_12mth.f_.3" optype="continuous" dataType="double"/>
		<DataField name="cnt_inq_app_12mth.f_.6" optype="continuous" dataType="double"/>
		<DataField name="cnt_inq_app_12mth.f_.9" optype="continuous" dataType="double"/>
		<DataField name="cnt_inq_app_12mth.f_else" optype="continuous" dataType="double"/>
		<DataField name="Net_Fractn_house_Loan_Burden.f_.75.95." optype="continuous" dataType="double"/>
		<DataField name="Net_Fractn_house_Loan_Burden.f_.0.75." optype="continuous" dataType="double"/>
		<DataField name="Net_Fractn_house_Loan_Burden.f_.95.100." optype="continuous" dataType="double"/>
		<DataField name="Net_Fractn_house_Loan_Burden.f_无贷款" optype="continuous" dataType="double"/>
		<DataField name="Net_Fractn_house_Loan_Burden.f_无住房贷款" optype="continuous" dataType="double"/>
		<DataField name="Net_Fractn_house_Loan_Burden.f_无状态正常的住房贷款" optype="continuous" dataType="double"/>
		<DataField name="max_utilization_of_cc.f_.0.40." optype="continuous" dataType="double"/>
		<DataField name="max_utilization_of_cc.f_.40.75." optype="continuous" dataType="double"/>
		<DataField name="max_utilization_of_cc.f_.75.95." optype="continuous" dataType="double"/>
		<DataField name="max_utilization_of_cc.f_..95" optype="continuous" dataType="double"/>
		<DataField name="max_utilization_of_cc.f_未激活或销户" optype="continuous" dataType="double"/>
		<DataField name="max_utilization_of_cc.f_无贷款" optype="continuous" dataType="double"/>
		<DataField name="max_utilization_of_cc.f_正常或呆账的贷记卡的授信额度..50" optype="continuous" dataType="double"/>
		<DataField name="Max_Delq_l12m.f_.0.1." optype="continuous" dataType="double"/>
		<DataField name="Max_Delq_l12m.f_.1.2." optype="continuous" dataType="double"/>
		<DataField name="Max_Delq_l12m.f_..2" optype="continuous" dataType="double"/>
		<DataField name="Max_Delq_l12m.f_无贷款" optype="continuous" dataType="double"/>
		<DataField name="mth_since_oldest_tl_opn.f_.0.12." optype="continuous" dataType="double"/>
		<DataField name="mth_since_oldest_tl_opn.f_.12.24." optype="continuous" dataType="double"/>
		<DataField name="mth_since_oldest_tl_opn.f_.24.36." optype="continuous" dataType="double"/>
		<DataField name="mth_since_oldest_tl_opn.f_.36.48." optype="continuous" dataType="double"/>
		<DataField name="mth_since_oldest_tl_opn.f_.48.84." optype="continuous" dataType="double"/>
		<DataField name="mth_since_oldest_tl_opn.f_..84" optype="continuous" dataType="double"/>
		<DataField name="N_TL_60DPD_ever.f_..2" optype="continuous" dataType="double"/>
		<DataField name="N_TL_60DPD_ever.f_0" optype="continuous" dataType="double"/>
		<DataField name="N_TL_60DPD_ever.f_1" optype="continuous" dataType="double"/>
		<DataField name="mobile_online_time_.9999" optype="continuous" dataType="double"/>
		<DataField name="mobile_online_time_0.6个月" optype="continuous" dataType="double"/>
		<DataField name="mobile_online_time_12.24个月" optype="continuous" dataType="double"/>
		<DataField name="mobile_online_time_24个月以上" optype="continuous" dataType="double"/>
		<DataField name="mobile_online_time_6.12个月" optype="continuous" dataType="double"/>
	</DataDictionary>
	<MiningModel functionName="classification">
		<MiningSchema>
			<MiningField name="label" usageType="target"/>
			<MiningField name="Net_Fractn_house_Loan_Burden.f_.0.75."/>
			<MiningField name="work_time_.4.6."/>
			<MiningField name="max_utilization_of_cc.f_正常或呆账的贷记卡的授信额度..50"/>
			<MiningField name="mth_since_oldest_tl_opn.f_.36.48."/>
			<MiningField name="cnt_inq_app_12mth.f_.2"/>
			<MiningField name="Max_Delq_l12m.f_..2"/>
			<MiningField name="Marital_Status_已婚"/>
			<MiningField name="Current_Residence_Province_area1"/>
			<MiningField name="mth_since_oldest_tl_opn.f_.24.36."/>
			<MiningField name="mth_since_oldest_tl_opn.f_.12.24."/>
			<MiningField name="N_TL_60DPD_ever.f_1"/>
			<MiningField name="Current_Residence_Province_area3"/>
			<MiningField name="Net_Fractn_house_Loan_Burden.f_无住房贷款"/>
			<MiningField name="Net_Fractn_house_Loan_Burden.f_无贷款"/>
			<MiningField name="mobile_online_time_0.6个月"/>
			<MiningField name="month3_all_number.f_.2"/>
			<MiningField name="max_utilization_of_cc.f_无贷款"/>
			<MiningField name="cnt_inq_app_12mth.f_.6"/>
			<MiningField name="mth_since_oldest_tl_opn.f_.0.12."/>
			<MiningField name="mobile_online_time_12.24个月"/>
			<MiningField name="work_time_.6.12."/>
			<MiningField name="month3_all_number.f_ELSE"/>
			<MiningField name="age_31...40"/>
			<MiningField name="cnt_inq_app_12mth.f_.3"/>
			<MiningField name="mth_since_oldest_tl_opn.f_..84"/>
			<MiningField name="SEX_男性"/>
			<MiningField name="Marital_Status_未婚"/>
			<MiningField name="Net_Fractn_house_Loan_Burden.f_.75.95."/>
			<MiningField name="max_utilization_of_cc.f_.75.95."/>
			<MiningField name="cnt_inq_app_12mth.f_.9"/>
			<MiningField name="Net_Fractn_house_Loan_Burden.f_无状态正常的住房贷款"/>
			<MiningField name="month3_org_number.f_.2"/>
			<MiningField name="max_utilization_of_cc.f_.40.75."/>
			<MiningField name="cnt_inq_app_12mth.f_else"/>
			<MiningField name="age_21...30"/>
			<MiningField name="mobile_online_time_24个月以上"/>
			<MiningField name="Max_Delq_l12m.f_.0.1."/>
			<MiningField name="cnt_inq_app_12mth.f_.1"/>
			<MiningField name="N_TL_60DPD_ever.f_..2"/>
			<MiningField name="Marital_Status_离婚"/>
			<MiningField name="N_TL_60DPD_ever.f_0"/>
			<MiningField name="Current_Residence_Province_ELSE"/>
			<MiningField name="max_utilization_of_cc.f_未激活或销户"/>
			<MiningField name="Max_Delq_l12m.f_无贷款"/>
			<MiningField name="month3_org_number.f_.1"/>
			<MiningField name="max_utilization_of_cc.f_..95"/>
			<MiningField name="work_time_..4"/>
			<MiningField name="work_time_..12"/>
			<MiningField name="mobile_online_time_.9999"/>
			<MiningField name="age_41...50"/>
			<MiningField name="mobile_online_time_6.12个月"/>
			<MiningField name="month3_all_number.f_.1"/>
			<MiningField name="max_utilization_of_cc.f_.0.40."/>
			<MiningField name="SEX_女性"/>
			<MiningField name="cnt_inq_app_12mth.f_.12"/>
			<MiningField name="Max_Delq_l12m.f_.1.2."/>
			<MiningField name="Current_Residence_Province_area2"/>
			<MiningField name="age_51...65"/>
			<MiningField name="Net_Fractn_house_Loan_Burden.f_.95.100."/>
			<MiningField name="mth_since_oldest_tl_opn.f_.48.84."/>
		</MiningSchema>
		<Segmentation multipleModelMethod="modelChain">
			<Segment id="1">
				<True/>
				<MiningModel functionName="regression">
					<MiningSchema>
						<MiningField name="Net_Fractn_house_Loan_Burden.f_.0.75."/>
						<MiningField name="work_time_.4.6."/>
						<MiningField name="max_utilization_of_cc.f_正常或呆账的贷记卡的授信额度..50"/>
						<MiningField name="mth_since_oldest_tl_opn.f_.36.48."/>
						<MiningField name="cnt_inq_app_12mth.f_.2"/>
						<MiningField name="Max_Delq_l12m.f_..2"/>
						<MiningField name="Marital_Status_已婚"/>
						<MiningField name="Current_Residence_Province_area1"/>
						<MiningField name="mth_since_oldest_tl_opn.f_.24.36."/>
						<MiningField name="mth_since_oldest_tl_opn.f_.12.24."/>
						<MiningField name="N_TL_60DPD_ever.f_1"/>
						<MiningField name="Current_Residence_Province_area3"/>
						<MiningField name="Net_Fractn_house_Loan_Burden.f_无住房贷款"/>
						<MiningField name="Net_Fractn_house_Loan_Burden.f_无贷款"/>
						<MiningField name="mobile_online_time_0.6个月"/>
						<MiningField name="month3_all_number.f_.2"/>
						<MiningField name="max_utilization_of_cc.f_无贷款"/>
						<MiningField name="cnt_inq_app_12mth.f_.6"/>
						<MiningField name="mth_since_oldest_tl_opn.f_.0.12."/>
						<MiningField name="mobile_online_time_12.24个月"/>
						<MiningField name="work_time_.6.12."/>
						<MiningField name="month3_all_number.f_ELSE"/>
						<MiningField name="age_31...40"/>
						<MiningField name="cnt_inq_app_12mth.f_.3"/>
						<MiningField name="mth_since_oldest_tl_opn.f_..84"/>
						<MiningField name="SEX_男性"/>
						<MiningField name="Marital_Status_未婚"/>
						<MiningField name="Net_Fractn_house_Loan_Burden.f_.75.95."/>
						<MiningField name="max_utilization_of_cc.f_.75.95."/>
						<MiningField name="cnt_inq_app_12mth.f_.9"/>
						<MiningField name="Net_Fractn_house_Loan_Burden.f_无状态正常的住房贷款"/>
						<MiningField name="month3_org_number.f_.2"/>
						<MiningField name="max_utilization_of_cc.f_.40.75."/>
						<MiningField name="cnt_inq_app_12mth.f_else"/>
						<MiningField name="age_21...30"/>
						<MiningField name="mobile_online_time_24个月以上"/>
						<MiningField name="Max_Delq_l12m.f_.0.1."/>
						<MiningField name="cnt_inq_app_12mth.f_.1"/>
						<MiningField name="N_TL_60DPD_ever.f_..2"/>
						<MiningField name="Marital_Status_离婚"/>
						<MiningField name="N_TL_60DPD_ever.f_0"/>
						<MiningField name="Current_Residence_Province_ELSE"/>
						<MiningField name="max_utilization_of_cc.f_未激活或销户"/>
						<MiningField name="Max_Delq_l12m.f_无贷款"/>
						<MiningField name="month3_org_number.f_.1"/>
						<MiningField name="max_utilization_of_cc.f_..95"/>
						<MiningField name="work_time_..4"/>
						<MiningField name="work_time_..12"/>
						<MiningField name="mobile_online_time_.9999"/>
						<MiningField name="age_41...50"/>
						<MiningField name="mobile_online_time_6.12个月"/>
						<MiningField name="month3_all_number.f_.1"/>
						<MiningField name="max_utilization_of_cc.f_.0.40."/>
						<MiningField name="SEX_女性"/>
						<MiningField name="cnt_inq_app_12mth.f_.12"/>
						<MiningField name="Max_Delq_l12m.f_.1.2."/>
						<MiningField name="Current_Residence_Province_area2"/>
						<MiningField name="age_51...65"/>
						<MiningField name="Net_Fractn_house_Loan_Burden.f_.95.100."/>
						<MiningField name="mth_since_oldest_tl_opn.f_.48.84."/>
					</MiningSchema>
					<Output>
						<OutputField name="gbmValue" optype="continuous" dataType="double" feature="predictedValue" isFinalResult="false"/>
					</Output>
					<Targets>
						<Target rescaleConstant="-0.6745592847918543"/>
					</Targets>
					<Segmentation multipleModelMethod="sum">
						<Segment id="1">
							<True/>
							<TreeModel functionName="regression" splitCharacteristic="multiSplit">
								<MiningSchema>
									<MiningField name="max_utilization_of_cc.f_..95"/>
									<MiningField name="mobile_online_time_12.24个月"/>
									<MiningField name="mobile_online_time_24个月以上"/>
								</MiningSchema>
								<Node id="1">
									<True/>
									<Node id="10" score="-5.282998973290377E-4">
										<SimplePredicate field="mobile_online_time_24个月以上" operator="isMissing"/>
									</Node>
									<Node id="2">
										<SimplePredicate field="mobile_online_time_24个月以上" operator="lessThan" value="0.5"/>
										<Node id="5" score="0.01569541663026367">
											<SimplePredicate field="mobile_online_time_12.24个月" operator="isMissing"/>
										</Node>
										<Node id="3" score="0.027918530408072382">
											<SimplePredicate field="mobile_online_time_12.24个月" operator="lessThan" value="0.5"/>
										</Node>
										<Node id="4" score="0.005773124269454246">
											<SimplePredicate field="mobile_online_time_12.24个月" operator="greaterOrEqual" value="0.5"/>
										</Node>
									</Node>
									<Node id="6">
										<SimplePredicate field="mobile_online_time_24个月以上" operator="greaterOrEqual" value="0.5"/>
										<Node id="9" score="-0.0043720727361740794">
											<SimplePredicate field="max_utilization_of_cc.f_..95" operator="isMissing"/>
										</Node>
										<Node id="7" score="-0.0077612229643010695">
											<SimplePredicate field="max_utilization_of_cc.f_..95" operator="lessThan" value="0.5"/>
										</Node>
										<Node id="8" score="0.008436921508364696">
											<SimplePredicate field="max_utilization_of_cc.f_..95" operator="greaterOrEqual" value="0.5"/>
										</Node>
									</Node>
								</Node>
							</TreeModel>
						</Segment>
						<Segment id="2">
							<True/>
							<TreeModel functionName="regression" splitCharacteristic="multiSplit">
								<MiningSchema>
									<MiningField name="work_time_.4.6."/>
									<MiningField name="max_utilization_of_cc.f_..95"/>
									<MiningField name="mobile_online_time_24个月以上"/>
								</MiningSchema>
								<Node id="1">
									<True/>
									<Node id="10" score="-6.394798234007636E-4">
										<SimplePredicate field="mobile_online_time_24个月以上" operator="isMissing"/>
									</Node>
									<Node id="2" score="0.01929863029680368">
										<SimplePredicate field="mobile_online_time_24个月以上" operator="lessThan" value="0.5"/>
									</Node>
									<Node id="3">
										<SimplePredicate field="mobile_online_time_24个月以上" operator="greaterOrEqual" value="0.5"/>
										<Node id="9" score="-0.0050634373880661864">
											<SimplePredicate field="max_utilization_of_cc.f_..95" operator="isMissing"/>
										</Node>
										<Node id="4" score="-0.008629760863905414">
											<SimplePredicate field="max_utilization_of_cc.f_..95" operator="lessThan" value="0.5"/>
										</Node>
										<Node id="5">
											<SimplePredicate field="max_utilization_of_cc.f_..95" operator="greaterOrEqual" value="0.5"/>
											<Node id="8" score="0.0073337823136606535">
												<SimplePredicate field="work_time_.4.6." operator="isMissing"/>
											</Node>
											<Node id="6" score="0.0024556164235280103">
												<SimplePredicate field="work_time_.4.6." operator="lessThan" value="0.5"/>
											</Node>
											<Node id="7" score="0.02635862928517796">
												<SimplePredicate field="work_time_.4.6." operator="greaterOrEqual" value="0.5"/>
											</Node>
										</Node>
									</Node>
								</Node>
							</TreeModel>
						</Segment>
						<Segment id="3">
							<True/>
							<TreeModel functionName="regression" splitCharacteristic="multiSplit">
								<MiningSchema>
									<MiningField name="max_utilization_of_cc.f_..95"/>
									<MiningField name="mobile_online_time_12.24个月"/>
									<MiningField name="mobile_online_time_24个月以上"/>
								</MiningSchema>
								<Node id="1">
									<True/>
									<Node id="10" score="-1.4813095450100813E-5">
										<SimplePredicate field="mobile_online_time_24个月以上" operator="isMissing"/>
									</Node>
									<Node id="2">
										<SimplePredicate field="mobile_online_time_24个月以上" operator="lessThan" value="0.5"/>
										<Node id="5" score="0.01846063777269021">
											<SimplePredicate field="mobile_online_time_12.24个月" operator="isMissing"/>
										</Node>
										<Node id="3" score="0.02790437179543692">
											<SimplePredicate field="mobile_online_time_12.24个月" operator="lessThan" value="0.5"/>
										</Node>
										<Node id="4" score="0.0100409231018076">
											<SimplePredicate field="mobile_online_time_12.24个月" operator="greaterOrEqual" value="0.5"/>
										</Node>
									</Node>
									<Node id="6">
										<SimplePredicate field="mobile_online_time_24个月以上" operator="greaterOrEqual" value="0.5"/>
										<Node id="9" score="-0.004498036876436235">
											<SimplePredicate field="max_utilization_of_cc.f_..95" operator="isMissing"/>
										</Node>
										<Node id="7" score="-0.008447838785687816">
											<SimplePredicate field="max_utilization_of_cc.f_..95" operator="lessThan" value="0.5"/>
										</Node>
										<Node id="8" score="0.010623219686594068">
											<SimplePredicate field="max_utilization_of_cc.f_..95" operator="greaterOrEqual" value="0.5"/>
										</Node>
									</Node>
								</Node>
							</TreeModel>
						</Segment>
						<Segment id="4">
							<True/>
							<TreeModel functionName="regression" splitCharacteristic="multiSplit">
								<MiningSchema>
									<MiningField name="max_utilization_of_cc.f_.0.40."/>
									<MiningField name="max_utilization_of_cc.f_..95"/>
									<MiningField name="mobile_online_time_24个月以上"/>
								</MiningSchema>
								<Node id="1">
									<True/>
									<Node id="10" score="8.938979780220079E-4">
										<SimplePredicate field="max_utilization_of_cc.f_..95" operator="isMissing"/>
									</Node>
									<Node id="2">
										<SimplePredicate field="max_utilization_of_cc.f_..95" operator="lessThan" value="0.5"/>
										<Node id="8" score="-0.003109321264899717">
											<SimplePredicate field="mobile_online_time_24个月以上" operator="isMissing"/>
										</Node>
										<Node id="3" score="0.011908605542470493">
											<SimplePredicate field="mobile_online_time_24个月以上" operator="lessThan" value="0.5"/>
										</Node>
										<Node id="4">
											<SimplePredicate field="mobile_online_time_24个月以上" operator="greaterOrEqual" value="0.5"/>
											<Node id="7" score="-0.006599815972081465">
												<SimplePredicate field="max_utilization_of_cc.f_.0.40." operator="isMissing"/>
											</Node>
											<Node id="5" score="-0.0027170527722766282">
												<SimplePredicate field="max_utilization_of_cc.f_.0.40." operator="lessThan" value="0.5"/>
											</Node>
											<Node id="6" score="-0.017442791722647562">
												<SimplePredicate field="max_utilization_of_cc.f_.0.40." operator="greaterOrEqual" value="0.5"/>
											</Node>
										</Node>
									</Node>
									<Node id="9" score="0.015495235216655585">
										<SimplePredicate field="max_utilization_of_cc.f_..95" operator="greaterOrEqual" value="0.5"/>
									</Node>
								</Node>
							</TreeModel>
						</Segment>
						<Segment id="5">
							<True/>
							<TreeModel functionName="regression" splitCharacteristic="multiSplit">
								<MiningSchema>
									<MiningField name="max_utilization_of_cc.f_..95"/>
									<MiningField name="Max_Delq_l12m.f_.0.1."/>
									<MiningField name="mobile_online_time_24个月以上"/>
								</MiningSchema>
								<Node id="1">
									<True/>
									<Node id="10" score="-6.549366434310092E-5">
										<SimplePredicate field="mobile_online_time_24个月以上" operator="isMissing"/>
									</Node>
									<Node id="2" score="0.01539489780460044">
										<SimplePredicate field="mobile_online_time_24个月以上" operator="lessThan" value="0.5"/>
									</Node>
									<Node id="3">
										<SimplePredicate field="mobile_online_time_24个月以上" operator="greaterOrEqual" value="0.5"/>
										<Node id="9" score="-0.0034672489951425144">
											<SimplePredicate field="max_utilization_of_cc.f_..95" operator="isMissing"/>
										</Node>
										<Node id="4" score="-0.007323214833461787">
											<SimplePredicate field="max_utilization_of_cc.f_..95" operator="lessThan" value="0.5"/>
										</Node>
										<Node id="5">
											<SimplePredicate field="max_utilization_of_cc.f_..95" operator="greaterOrEqual" value="0.5"/>
											<Node id="8" score="0.010571725219019907">
												<SimplePredicate field="Max_Delq_l12m.f_.0.1." operator="isMissing"/>
											</Node>
											<Node id="6" score="0.023564020237249145">
												<SimplePredicate field="Max_Delq_l12m.f_.0.1." operator="lessThan" value="0.5"/>
											</Node>
											<Node id="7" score="0.0025991805487428714">
												<SimplePredicate field="Max_Delq_l12m.f_.0.1." operator="greaterOrEqual" value="0.5"/>
											</Node>
										</Node>
									</Node>
								</Node>
							</TreeModel>
						</Segment>
						<Segment id="6">
							<True/>
							<TreeModel functionName="regression" splitCharacteristic="multiSplit">
								<MiningSchema>
									<MiningField name="cnt_inq_app_12mth.f_.1"/>
									<MiningField name="max_utilization_of_cc.f_.0.40."/>
									<MiningField name="mobile_online_time_24个月以上"/>
								</MiningSchema>
								<Node id="1">
									<True/>
									<Node id="10" score="-1.827667671914217E-4">
										<SimplePredicate field="mobile_online_time_24个月以上" operator="isMissing"/>
									</Node>
									<Node id="2" score="0.015798991913627384">
										<SimplePredicate field="mobile_online_time_24个月以上" operator="lessThan" value="0.5"/>
									</Node>
									<Node id="3">
										<SimplePredicate field="mobile_online_time_24个月以上" operator="greaterOrEqual" value="0.5"/>
										<Node id="9" score="-0.003379118503355183">
											<SimplePredicate field="cnt_inq_app_12mth.f_.1" operator="isMissing"/>
										</Node>
										<Node id="4">
											<SimplePredicate field="cnt_inq_app_12mth.f_.1" operator="lessThan" value="0.5"/>
											<Node id="7" score="3.160513541795354E-4">
												<SimplePredicate field="max_utilization_of_cc.f_.0.40." operator="isMissing"/>
											</Node>
											<Node id="5" score="0.0038713521944264504">
												<SimplePredicate field="max_utilization_of_cc.f_.0.40." operator="lessThan" value="0.5"/>
											</Node>
											<Node id="6" score="-0.013831846834844272">
												<SimplePredicate field="max_utilization_of_cc.f_.0.40." operator="greaterOrEqual" value="0.5"/>
											</Node>
										</Node>
										<Node id="8" score="-0.012923327279768384">
											<SimplePredicate field="cnt_inq_app_12mth.f_.1" operator="greaterOrEqual" value="0.5"/>
										</Node>
									</Node>
								</Node>
							</TreeModel>
						</Segment>
						<Segment id="7">
							<True/>
							<TreeModel functionName="regression" splitCharacteristic="multiSplit">
								<MiningSchema>
									<MiningField name="month3_all_number.f_ELSE"/>
									<MiningField name="max_utilization_of_cc.f_..95"/>
									<MiningField name="mobile_online_time_24个月以上"/>
								</MiningSchema>
								<Node id="1">
									<True/>
									<Node id="10" score="9.184277702310774E-4">
										<SimplePredicate field="mobile_online_time_24个月以上" operator="isMissing"/>
									</Node>
									<Node id="2" score="0.018519721815849436">
										<SimplePredicate field="mobile_online_time_24个月以上" operator="lessThan" value="0.5"/>
									</Node>
									<Node id="3">
										<SimplePredicate field="mobile_online_time_24个月以上" operator="greaterOrEqual" value="0.5"/>
										<Node id="9" score="-0.0030855307225889765">
											<SimplePredicate field="max_utilization_of_cc.f_..95" operator="isMissing"/>
										</Node>
										<Node id="4">
											<SimplePredicate field="max_utilization_of_cc.f_..95" operator="lessThan" value="0.5"/>
											<Node id="7" score="-0.0067772075546461644">
												<SimplePredicate field="month3_all_number.f_ELSE" operator="isMissing"/>
											</Node>
											<Node id="5" score="0.008194655613714645">
												<SimplePredicate field="month3_all_number.f_ELSE" operator="lessThan" value="0.5"/>
											</Node>
											<Node id="6" score="-0.008782367800408773">
												<SimplePredicate field="month3_all_number.f_ELSE" operator="greaterOrEqual" value="0.5"/>
											</Node>
										</Node>
										<Node id="8" score="0.009672100778669876">
											<SimplePredicate field="max_utilization_of_cc.f_..95" operator="greaterOrEqual" value="0.5"/>
										</Node>
									</Node>
								</Node>
							</TreeModel>
						</Segment>
						<Segment id="8">
							<True/>
							<TreeModel functionName="regression" splitCharacteristic="multiSplit">
								<MiningSchema>
									<MiningField name="month3_all_number.f_ELSE"/>
									<MiningField name="max_utilization_of_cc.f_..95"/>
									<MiningField name="mobile_online_time_24个月以上"/>
								</MiningSchema>
								<Node id="1">
									<True/>
									<Node id="10" score="-8.775574589115883E-4">
										<SimplePredicate field="mobile_online_time_24个月以上" operator="isMissing"/>
									</Node>
									<Node id="2">
										<SimplePredicate field="mobile_online_time_24个月以上" operator="lessThan" value="0.5"/>
										<Node id="5" score="0.014221878198063653">
											<SimplePredicate field="month3_all_number.f_ELSE" operator="isMissing"/>
										</Node>
										<Node id="3" score="0.03195547775317822">
											<SimplePredicate field="month3_all_number.f_ELSE" operator="lessThan" value="0.5"/>
										</Node>
										<Node id="4" score="0.00994135416751876">
											<SimplePredicate field="month3_all_number.f_ELSE" operator="greaterOrEqual" value="0.5"/>
										</Node>
									</Node>
									<Node id="6">
										<SimplePredicate field="mobile_online_time_24个月以上" operator="greaterOrEqual" value="0.5"/>
										<Node id="9" score="-0.004171979784069822">
											<SimplePredicate field="max_utilization_of_cc.f_..95" operator="isMissing"/>
										</Node>
										<Node id="7" score="-0.0072652208234664315">
											<SimplePredicate field="max_utilization_of_cc.f_..95" operator="lessThan" value="0.5"/>
										</Node>
										<Node id="8" score="0.00868430328592233">
											<SimplePredicate field="max_utilization_of_cc.f_..95" operator="greaterOrEqual" value="0.5"/>
										</Node>
									</Node>
								</Node>
							</TreeModel>
						</Segment>
						<Segment id="9">
							<True/>
							<TreeModel functionName="regression" splitCharacteristic="multiSplit">
								<MiningSchema>
									<MiningField name="month3_all_number.f_ELSE"/>
									<MiningField name="max_utilization_of_cc.f_..95"/>
									<MiningField name="mobile_online_time_24个月以上"/>
								</MiningSchema>
								<Node id="1">
									<True/>
									<Node id="10" score="-0.0012302309107848298">
										<SimplePredicate field="mobile_online_time_24个月以上" operator="isMissing"/>
									</Node>
									<Node id="2">
										<SimplePredicate field="mobile_online_time_24个月以上" operator="lessThan" value="0.5"/>
										<Node id="5" score="0.015739223500911358">
											<SimplePredicate field="month3_all_number.f_ELSE" operator="isMissing"/>
										</Node>
										<Node id="3" score="0.03370090009306536">
											<SimplePredicate field="month3_all_number.f_ELSE" operator="lessThan" value="0.5"/>
										</Node>
										<Node id="4" score="0.011003872399343483">
											<SimplePredicate field="month3_all_number.f_ELSE" operator="greaterOrEqual" value="0.5"/>
										</Node>
									</Node>
									<Node id="6">
										<SimplePredicate field="mobile_online_time_24个月以上" operator="greaterOrEqual" value="0.5"/>
										<Node id="9" score="-0.004777229652477717">
											<SimplePredicate field="max_utilization_of_cc.f_..95" operator="isMissing"/>
										</Node>
										<Node id="7" score="-0.007593676175278418">
											<SimplePredicate field="max_utilization_of_cc.f_..95" operator="lessThan" value="0.5"/>
										</Node>
										<Node id="8" score="0.0061779189545926585">
											<SimplePredicate field="max_utilization_of_cc.f_..95" operator="greaterOrEqual" value="0.5"/>
										</Node>
									</Node>
								</Node>
							</TreeModel>
						</Segment>
						<Segment id="10">
							<True/>
							<TreeModel functionName="regression" splitCharacteristic="multiSplit">
								<MiningSchema>
									<MiningField name="max_utilization_of_cc.f_..95"/>
									<MiningField name="mobile_online_time_12.24个月"/>
									<MiningField name="mobile_online_time_24个月以上"/>
								</MiningSchema>
								<Node id="1">
									<True/>
									<Node id="10" score="-0.0016960827665979208">
										<SimplePredicate field="mobile_online_time_24个月以上" operator="isMissing"/>
									</Node>
									<Node id="2">
										<SimplePredicate field="mobile_online_time_24个月以上" operator="lessThan" value="0.5"/>
										<Node id="5" score="0.015233065550108964">
											<SimplePredicate field="mobile_online_time_12.24个月" operator="isMissing"/>
										</Node>
										<Node id="3" score="0.025608930211510342">
											<SimplePredicate field="mobile_online_time_12.24个月" operator="lessThan" value="0.5"/>
										</Node>
										<Node id="4" score="0.00759369266753872">
											<SimplePredicate field="mobile_online_time_12.24个月" operator="greaterOrEqual" value="0.5"/>
										</Node>
									</Node>
									<Node id="6">
										<SimplePredicate field="mobile_online_time_24个月以上" operator="greaterOrEqual" value="0.5"/>
										<Node id="9" score="-0.005836648453965859">
											<SimplePredicate field="max_utilization_of_cc.f_..95" operator="isMissing"/>
										</Node>
										<Node id="7" score="-0.009442590644730183">
											<SimplePredicate field="max_utilization_of_cc.f_..95" operator="lessThan" value="0.5"/>
										</Node>
										<Node id="8" score="0.006734066683281991">
											<SimplePredicate field="max_utilization_of_cc.f_..95" operator="greaterOrEqual" value="0.5"/>
										</Node>
									</Node>
								</Node>
							</TreeModel>
						</Segment>
						<Segment id="11">
							<True/>
							<TreeModel functionName="regression" splitCharacteristic="multiSplit">
								<MiningSchema>
									<MiningField name="max_utilization_of_cc.f_..95"/>
									<MiningField name="Max_Delq_l12m.f_.1.2."/>
									<MiningField name="mobile_online_time_24个月以上"/>
								</MiningSchema>
								<Node id="1">
									<True/>
									<Node id="10" score="-0.00110188335831765">
										<SimplePredicate field="mobile_online_time_24个月以上" operator="isMissing"/>
									</Node>
									<Node id="2" score="0.01565108967438403">
										<SimplePredicate field="mobile_online_time_24个月以上" operator="lessThan" value="0.5"/>
									</Node>
									<Node id="3">
										<SimplePredicate field="mobile_online_time_24个月以上" operator="greaterOrEqual" value="0.5"/>
										<Node id="9" score="-0.004127750734268174">
											<SimplePredicate field="max_utilization_of_cc.f_..95" operator="isMissing"/>
										</Node>
										<Node id="4" score="-0.007378520101305283">
											<SimplePredicate field="max_utilization_of_cc.f_..95" operator="lessThan" value="0.5"/>
										</Node>
										<Node id="5">
											<SimplePredicate field="max_utilization_of_cc.f_..95" operator="greaterOrEqual" value="0.5"/>
											<Node id="8" score="0.007579411918642497">
												<SimplePredicate field="Max_Delq_l12m.f_.1.2." operator="isMissing"/>
											</Node>
											<Node id="6" score="0.0027854067995471354">
												<SimplePredicate field="Max_Delq_l12m.f_.1.2." operator="lessThan" value="0.5"/>
											</Node>
											<Node id="7" score="0.02052322574019997">
												<SimplePredicate field="Max_Delq_l12m.f_.1.2." operator="greaterOrEqual" value="0.5"/>
											</Node>
										</Node>
									</Node>
								</Node>
							</TreeModel>
						</Segment>
						<Segment id="12">
							<True/>
							<TreeModel functionName="regression" splitCharacteristic="multiSplit">
								<MiningSchema>
									<MiningField name="Marital_Status_离婚"/>
									<MiningField name="max_utilization_of_cc.f_.0.40."/>
									<MiningField name="Max_Delq_l12m.f_.1.2."/>
								</MiningSchema>
								<Node id="1">
									<True/>
									<Node id="10" score="8.065472821446721E-4">
										<SimplePredicate field="max_utilization_of_cc.f_.0.40." operator="isMissing"/>
									</Node>
									<Node id="2">
										<SimplePredicate field="max_utilization_of_cc.f_.0.40." operator="lessThan" value="0.5"/>
										<Node id="8" score="0.0044315035722780555">
											<SimplePredicate field="Marital_Status_离婚" operator="isMissing"/>
										</Node>
										<Node id="3">
											<SimplePredicate field="Marital_Status_离婚" operator="lessThan" value="0.5"/>
											<Node id="6" score="0.0021078893781210466">
												<SimplePredicate field="Max_Delq_l12m.f_.1.2." operator="isMissing"/>
											</Node>
											<Node id="4" score="-2.794070629603363E-4">
												<SimplePredicate field="Max_Delq_l12m.f_.1.2." operator="lessThan" value="0.5"/>
											</Node>
											<Node id="5" score="0.015673350331559963">
												<SimplePredicate field="Max_Delq_l12m.f_.1.2." operator="greaterOrEqual" value="0.5"/>
											</Node>
										</Node>
										<Node id="7" score="0.024130203009310607">
											<SimplePredicate field="Marital_Status_离婚" operator="greaterOrEqual" value="0.5"/>
										</Node>
									</Node>
									<Node id="9" score="-0.0128138506127352">
										<SimplePredicate field="max_utilization_of_cc.f_.0.40." operator="greaterOrEqual" value="0.5"/>
									</Node>
								</Node>
							</TreeModel>
						</Segment>
						<Segment id="13">
							<True/>
							<TreeModel functionName="regression" splitCharacteristic="multiSplit">
								<MiningSchema>
									<MiningField name="cnt_inq_app_12mth.f_.1"/>
									<MiningField name="max_utilization_of_cc.f_.0.40."/>
									<MiningField name="mobile_online_time_24个月以上"/>
								</MiningSchema>
								<Node id="1">
									<True/>
									<Node id="10" score="-0.001352861377044714">
										<SimplePredicate field="mobile_online_time_24个月以上" operator="isMissing"/>
									</Node>
									<Node id="2" score="0.01291969342378521">
										<SimplePredicate field="mobile_online_time_24个月以上" operator="lessThan" value="0.5"/>
									</Node>
									<Node id="3">
										<SimplePredicate field="mobile_online_time_24个月以上" operator="greaterOrEqual" value="0.5"/>
										<Node id="9" score="-0.004954347167908339">
											<SimplePredicate field="max_utilization_of_cc.f_.0.40." operator="isMissing"/>
										</Node>
										<Node id="4">
											<SimplePredicate field="max_utilization_of_cc.f_.0.40." operator="lessThan" value="0.5"/>
											<Node id="7" score="-0.0016841822542018514">
												<SimplePredicate field="cnt_inq_app_12mth.f_.1" operator="isMissing"/>
											</Node>
											<Node id="5" score="0.002662200271778558">
												<SimplePredicate field="cnt_inq_app_12mth.f_.1" operator="lessThan" value="0.5"/>
											</Node>
											<Node id="6" score="-0.014049472076177124">
												<SimplePredicate field="cnt_inq_app_12mth.f_.1" operator="greaterOrEqual" value="0.5"/>
											</Node>
										</Node>
										<Node id="8" score="-0.016063948518582435">
											<SimplePredicate field="max_utilization_of_cc.f_.0.40." operator="greaterOrEqual" value="0.5"/>
										</Node>
									</Node>
								</Node>
							</TreeModel>
						</Segment>
						<Segment id="14">
							<True/>
							<TreeModel functionName="regression" splitCharacteristic="multiSplit">
								<MiningSchema>
									<MiningField name="max_utilization_of_cc.f_..95"/>
									<MiningField name="mobile_online_time_.9999"/>
									<MiningField name="mobile_online_time_0.6个月"/>
								</MiningSchema>
								<Node id="1">
									<True/>
									<Node id="10" score="-0.002021210486695773">
										<SimplePredicate field="mobile_online_time_.9999" operator="isMissing"/>
									</Node>
									<Node id="2">
										<SimplePredicate field="mobile_online_time_.9999" operator="lessThan" value="0.5"/>
										<Node id="8" score="-0.0034295637323064677">
											<SimplePredicate field="max_utilization_of_cc.f_..95" operator="isMissing"/>
										</Node>
										<Node id="3">
											<SimplePredicate field="max_utilization_of_cc.f_..95" operator="lessThan" value="0.5"/>
											<Node id="6" score="-0.006438942356768766">
												<SimplePredicate field="mobile_online_time_0.6个月" operator="isMissing"/>
											</Node>
											<Node id="4" score="-0.0071987155750137">
												<SimplePredicate field="mobile_online_time_0.6个月" operator="lessThan" value="0.5"/>
											</Node>
											<Node id="5" score="0.024983107169218186">
												<SimplePredicate field="mobile_online_time_0.6个月" operator="greaterOrEqual" value="0.5"/>
											</Node>
										</Node>
										<Node id="7" score="0.006767930692300064">
											<SimplePredicate field="max_utilization_of_cc.f_..95" operator="greaterOrEqual" value="0.5"/>
										</Node>
									</Node>
									<Node id="9" score="0.028023658752999045">
										<SimplePredicate field="mobile_online_time_.9999" operator="greaterOrEqual" value="0.5"/>
									</Node>
								</Node>
							</TreeModel>
						</Segment>
						<Segment id="15">
							<True/>
							<TreeModel functionName="regression" splitCharacteristic="multiSplit">
								<MiningSchema>
									<MiningField name="max_utilization_of_cc.f_..95"/>
									<MiningField name="max_utilization_of_cc.f_无贷款"/>
									<MiningField name="mobile_online_time_24个月以上"/>
								</MiningSchema>
								<Node id="1">
									<True/>
									<Node id="10" score="-8.416794330018969E-4">
										<SimplePredicate field="mobile_online_time_24个月以上" operator="isMissing"/>
									</Node>
									<Node id="2" score="0.012843670601423931">
										<SimplePredicate field="mobile_online_time_24个月以上" operator="lessThan" value="0.5"/>
									</Node>
									<Node id="3">
										<SimplePredicate field="mobile_online_time_24个月以上" operator="greaterOrEqual" value="0.5"/>
										<Node id="9" score="-0.0039036983904761693">
											<SimplePredicate field="max_utilization_of_cc.f_..95" operator="isMissing"/>
										</Node>
										<Node id="4">
											<SimplePredicate field="max_utilization_of_cc.f_..95" operator="lessThan" value="0.5"/>
											<Node id="7" score="-0.007239700651762949">
												<SimplePredicate field="max_utilization_of_cc.f_无贷款" operator="isMissing"/>
											</Node>
											<Node id="5" score="-0.012025889411645818">
												<SimplePredicate field="max_utilization_of_cc.f_无贷款" operator="lessThan" value="0.5"/>
											</Node>
											<Node id="6" score="-0.0011383879533537057">
												<SimplePredicate field="max_utilization_of_cc.f_无贷款" operator="greaterOrEqual" value="0.5"/>
											</Node>
										</Node>
										<Node id="8" score="0.007179730174983197">
											<SimplePredicate field="max_utilization_of_cc.f_..95" operator="greaterOrEqual" value="0.5"/>
										</Node>
									</Node>
								</Node>
							</TreeModel>
						</Segment>
						<Segment id="16">
							<True/>
							<TreeModel functionName="regression" splitCharacteristic="multiSplit">
								<MiningSchema>
									<MiningField name="max_utilization_of_cc.f_..95"/>
									<MiningField name="mobile_online_time_12.24个月"/>
									<MiningField name="mobile_online_time_24个月以上"/>
								</MiningSchema>
								<Node id="1">
									<True/>
									<Node id="10" score="-5.722754020180712E-4">
										<SimplePredicate field="mobile_online_time_24个月以上" operator="isMissing"/>
									</Node>
									<Node id="2">
										<SimplePredicate field="mobile_online_time_24个月以上" operator="lessThan" value="0.5"/>
										<Node id="5" score="0.01386312936307153">
											<SimplePredicate field="mobile_online_time_12.24个月" operator="isMissing"/>
										</Node>
										<Node id="3" score="0.024248648609498658">
											<SimplePredicate field="mobile_online_time_12.24个月" operator="lessThan" value="0.5"/>
										</Node>
										<Node id="4" score="0.004862346016168015">
											<SimplePredicate field="mobile_online_time_12.24个月" operator="greaterOrEqual" value="0.5"/>
										</Node>
									</Node>
									<Node id="6">
										<SimplePredicate field="mobile_online_time_24个月以上" operator="greaterOrEqual" value="0.5"/>
										<Node id="9" score="-0.0036158848404405776">
											<SimplePredicate field="max_utilization_of_cc.f_..95" operator="isMissing"/>
										</Node>
										<Node id="7" score="-0.007357679726365498">
											<SimplePredicate field="max_utilization_of_cc.f_..95" operator="lessThan" value="0.5"/>
										</Node>
										<Node id="8" score="0.010139163965565117">
											<SimplePredicate field="max_utilization_of_cc.f_..95" operator="greaterOrEqual" value="0.5"/>
										</Node>
									</Node>
								</Node>
							</TreeModel>
						</Segment>
						<Segment id="17">
							<True/>
							<TreeModel functionName="regression" splitCharacteristic="multiSplit">
								<MiningSchema>
									<MiningField name="cnt_inq_app_12mth.f_.1"/>
									<MiningField name="max_utilization_of_cc.f_.0.40."/>
									<MiningField name="mobile_online_time_24个月以上"/>
								</MiningSchema>
								<Node id="1">
									<True/>
									<Node id="10" score="5.284606390594514E-4">
										<SimplePredicate field="mobile_online_time_24个月以上" operator="isMissing"/>
									</Node>
									<Node id="2" score="0.01706690189394365">
										<SimplePredicate field="mobile_online_time_24个月以上" operator="lessThan" value="0.5"/>
									</Node>
									<Node id="3">
										<SimplePredicate field="mobile_online_time_24个月以上" operator="greaterOrEqual" value="0.5"/>
										<Node id="9" score="-0.003358454125913333">
											<SimplePredicate field="max_utilization_of_cc.f_.0.40." operator="isMissing"/>
										</Node>
										<Node id="4">
											<SimplePredicate field="max_utilization_of_cc.f_.0.40." operator="lessThan" value="0.5"/>
											<Node id="7" score="1.9784838784964772E-4">
												<SimplePredicate field="cnt_inq_app_12mth.f_.1" operator="isMissing"/>
											</Node>
											<Node id="5" score="0.0036375444085011495">
												<SimplePredicate field="cnt_inq_app_12mth.f_.1" operator="lessThan" value="0.5"/>
											</Node>
											<Node id="6" score="-0.009782481732677057">
												<SimplePredicate field="cnt_inq_app_12mth.f_.1" operator="greaterOrEqual" value="0.5"/>
											</Node>
										</Node>
										<Node id="8" score="-0.01682533496847168">
											<SimplePredicate field="max_utilization_of_cc.f_.0.40." operator="greaterOrEqual" value="0.5"/>
										</Node>
									</Node>
								</Node>
							</TreeModel>
						</Segment>
						<Segment id="18">
							<True/>
							<TreeModel functionName="regression" splitCharacteristic="multiSplit">
								<MiningSchema>
									<MiningField name="Max_Delq_l12m.f_.1.2."/>
									<MiningField name="mobile_online_time_12.24个月"/>
									<MiningField name="mobile_online_time_24个月以上"/>
								</MiningSchema>
								<Node id="1">
									<True/>
									<Node id="10" score="-8.866324598020282E-4">
										<SimplePredicate field="mobile_online_time_24个月以上" operator="isMissing"/>
									</Node>
									<Node id="2">
										<SimplePredicate field="mobile_online_time_24个月以上" operator="lessThan" value="0.5"/>
										<Node id="5" score="0.011340140330574408">
											<SimplePredicate field="mobile_online_time_12.24个月" operator="isMissing"/>
										</Node>
										<Node id="3" score="0.022209223554651547">
											<SimplePredicate field="mobile_online_time_12.24个月" operator="lessThan" value="0.5"/>
										</Node>
										<Node id="4" score="0.0018110810656300671">
											<SimplePredicate field="mobile_online_time_12.24个月" operator="greaterOrEqual" value="0.5"/>
										</Node>
									</Node>
									<Node id="6">
										<SimplePredicate field="mobile_online_time_24个月以上" operator="greaterOrEqual" value="0.5"/>
										<Node id="9" score="-0.0033979785951567085">
											<SimplePredicate field="Max_Delq_l12m.f_.1.2." operator="isMissing"/>
										</Node>
										<Node id="7" score="-0.005898649137140199">
											<SimplePredicate field="Max_Delq_l12m.f_.1.2." operator="lessThan" value="0.5"/>
										</Node>
										<Node id="8" score="0.01013930520423469">
											<SimplePredicate field="Max_Delq_l12m.f_.1.2." operator="greaterOrEqual" value="0.5"/>
										</Node>
									</Node>
								</Node>
							</TreeModel>
						</Segment>
						<Segment id="19">
							<True/>
							<TreeModel functionName="regression" splitCharacteristic="multiSplit">
								<MiningSchema>
									<MiningField name="cnt_inq_app_12mth.f_.1"/>
									<MiningField name="max_utilization_of_cc.f_.0.40."/>
									<MiningField name="mobile_online_time_24个月以上"/>
								</MiningSchema>
								<Node id="1">
									<True/>
									<Node id="10" score="-1.4414543605978777E-5">
										<SimplePredicate field="mobile_online_time_24个月以上" operator="isMissing"/>
									</Node>
									<Node id="2" score="0.014288413420381582">
										<SimplePredicate field="mobile_online_time_24个月以上" operator="lessThan" value="0.5"/>
									</Node>
									<Node id="3">
										<SimplePredicate field="mobile_online_time_24个月以上" operator="greaterOrEqual" value="0.5"/>
										<Node id="9" score="-0.003321806614910912">
											<SimplePredicate field="cnt_inq_app_12mth.f_.1" operator="isMissing"/>
										</Node>
										<Node id="4">
											<SimplePredicate field="cnt_inq_app_12mth.f_.1" operator="lessThan" value="0.5"/>
											<Node id="7" score="4.2588664008493877E-4">
												<SimplePredicate field="max_utilization_of_cc.f_.0.40." operator="isMissing"/>
											</Node>
											<Node id="5" score="0.004246892031730168">
												<SimplePredicate field="max_utilization_of_cc.f_.0.40." operator="lessThan" value="0.5"/>
											</Node>
											<Node id="6" score="-0.013745220734754652">
												<SimplePredicate field="max_utilization_of_cc.f_.0.40." operator="greaterOrEqual" value="0.5"/>
											</Node>
										</Node>
										<Node id="8" score="-0.014141040118916792">
											<SimplePredicate field="cnt_inq_app_12mth.f_.1" operator="greaterOrEqual" value="0.5"/>
										</Node>
									</Node>
								</Node>
							</TreeModel>
						</Segment>
						<Segment id="20">
							<True/>
							<TreeModel functionName="regression" splitCharacteristic="multiSplit">
								<MiningSchema>
									<MiningField name="Marital_Status_已婚"/>
									<MiningField name="month3_all_number.f_ELSE"/>
									<MiningField name="Net_Fractn_house_Loan_Burden.f_无贷款"/>
								</MiningSchema>
								<Node id="1">
									<True/>
									<Node id="10" score="-8.193024641937015E-5">
										<SimplePredicate field="month3_all_number.f_ELSE" operator="isMissing"/>
									</Node>
									<Node id="2" score="0.01510703145134829">
										<SimplePredicate field="month3_all_number.f_ELSE" operator="lessThan" value="0.5"/>
									</Node>
									<Node id="3">
										<SimplePredicate field="month3_all_number.f_ELSE" operator="greaterOrEqual" value="0.5"/>
										<Node id="9" score="-0.0026428598349964756">
											<SimplePredicate field="Net_Fractn_house_Loan_Burden.f_无贷款" operator="isMissing"/>
										</Node>
										<Node id="4">
											<SimplePredicate field="Net_Fractn_house_Loan_Burden.f_无贷款" operator="lessThan" value="0.5"/>
											<Node id="7" score="5.488089581303192E-4">
												<SimplePredicate field="Marital_Status_已婚" operator="isMissing"/>
											</Node>
											<Node id="5" score="0.009746580068839456">
												<SimplePredicate field="Marital_Status_已婚" operator="lessThan" value="0.5"/>
											</Node>
											<Node id="6" score="-0.004135770116889241">
												<SimplePredicate field="Marital_Status_已婚" operator="greaterOrEqual" value="0.5"/>
											</Node>
										</Node>
										<Node id="8" score="-0.010321825347172823">
											<SimplePredicate field="Net_Fractn_house_Loan_Burden.f_无贷款" operator="greaterOrEqual" value="0.5"/>
										</Node>
									</Node>
								</Node>
							</TreeModel>
						</Segment>
						<Segment id="21">
							<True/>
							<TreeModel functionName="regression" splitCharacteristic="multiSplit">
								<MiningSchema>
									<MiningField name="Max_Delq_l12m.f_.1.2."/>
									<MiningField name="mobile_online_time_12.24个月"/>
									<MiningField name="mobile_online_time_24个月以上"/>
								</MiningSchema>
								<Node id="1">
									<True/>
									<Node id="10" score="-0.002215253102736701">
										<SimplePredicate field="Max_Delq_l12m.f_.1.2." operator="isMissing"/>
									</Node>
									<Node id="2">
										<SimplePredicate field="Max_Delq_l12m.f_.1.2." operator="lessThan" value="0.5"/>
										<Node id="8" score="-0.0052145768807394625">
											<SimplePredicate field="mobile_online_time_24个月以上" operator="isMissing"/>
										</Node>
										<Node id="3">
											<SimplePredicate field="mobile_online_time_24个月以上" operator="lessThan" value="0.5"/>
											<Node id="6" score="0.00934416369410207">
												<SimplePredicate field="mobile_online_time_12.24个月" operator="isMissing"/>
											</Node>
											<Node id="4" score="0.02565312881212899">
												<SimplePredicate field="mobile_online_time_12.24个月" operator="lessThan" value="0.5"/>
											</Node>
											<Node id="5" score="-0.0018391266725449572">
												<SimplePredicate field="mobile_online_time_12.24个月" operator="greaterOrEqual" value="0.5"/>
											</Node>
										</Node>
										<Node id="7" score="-0.008360971363946973">
											<SimplePredicate field="mobile_online_time_24个月以上" operator="greaterOrEqual" value="0.5"/>
										</Node>
									</Node>
									<Node id="9" score="0.012010111101504966">
										<SimplePredicate field="Max_Delq_l12m.f_.1.2." operator="greaterOrEqual" value="0.5"/>
									</Node>
								</Node>
							</TreeModel>
						</Segment>
						<Segment id="22">
							<True/>
							<TreeModel functionName="regression" splitCharacteristic="multiSplit">
								<MiningSchema>
									<MiningField name="Net_Fractn_house_Loan_Burden.f_无住房贷款"/>
									<MiningField name="max_utilization_of_cc.f_..95"/>
									<MiningField name="mobile_online_time_.9999"/>
								</MiningSchema>
								<Node id="1">
									<True/>
									<Node id="10" score="-6.208545873113367E-4">
										<SimplePredicate field="mobile_online_time_.9999" operator="isMissing"/>
									</Node>
									<Node id="2">
										<SimplePredicate field="mobile_online_time_.9999" operator="lessThan" value="0.5"/>
										<Node id="8" score="-0.001906946118331614">
											<SimplePredicate field="max_utilization_of_cc.f_..95" operator="isMissing"/>
										</Node>
										<Node id="3">
											<SimplePredicate field="max_utilization_of_cc.f_..95" operator="lessThan" value="0.5"/>
											<Node id="6" score="-0.005242832454468728">
												<SimplePredicate field="Net_Fractn_house_Loan_Burden.f_无住房贷款" operator="isMissing"/>
											</Node>
											<Node id="4" score="-0.010823047705893818">
												<SimplePredicate field="Net_Fractn_house_Loan_Burden.f_无住房贷款" operator="lessThan" value="0.5"/>
											</Node>
											<Node id="5" score="-8.513021086726485E-4">
												<SimplePredicate field="Net_Fractn_house_Loan_Burden.f_无住房贷款" operator="greaterOrEqual" value="0.5"/>
											</Node>
										</Node>
										<Node id="7" score="0.010378879168417267">
											<SimplePredicate field="max_utilization_of_cc.f_..95" operator="greaterOrEqual" value="0.5"/>
										</Node>
									</Node>
									<Node id="9" score="0.026815764741121243">
										<SimplePredicate field="mobile_online_time_.9999" operator="greaterOrEqual" value="0.5"/>
									</Node>
								</Node>
							</TreeModel>
						</Segment>
						<Segment id="23">
							<True/>
							<TreeModel functionName="regression" splitCharacteristic="multiSplit">
								<MiningSchema>
									<MiningField name="month3_all_number.f_ELSE"/>
									<MiningField name="cnt_inq_app_12mth.f_.1"/>
									<MiningField name="mobile_online_time_24个月以上"/>
								</MiningSchema>
								<Node id="1">
									<True/>
									<Node id="10" score="-5.720208188695112E-4">
										<SimplePredicate field="month3_all_number.f_ELSE" operator="isMissing"/>
									</Node>
									<Node id="2" score="0.013821532940794487">
										<SimplePredicate field="month3_all_number.f_ELSE" operator="lessThan" value="0.5"/>
									</Node>
									<Node id="3">
										<SimplePredicate field="month3_all_number.f_ELSE" operator="greaterOrEqual" value="0.5"/>
										<Node id="9" score="-0.003171737577222921">
											<SimplePredicate field="mobile_online_time_24个月以上" operator="isMissing"/>
										</Node>
										<Node id="4" score="0.008747242261337003">
											<SimplePredicate field="mobile_online_time_24个月以上" operator="lessThan" value="0.5"/>
										</Node>
										<Node id="5">
											<SimplePredicate field="mobile_online_time_24个月以上" operator="greaterOrEqual" value="0.5"/>
											<Node id="8" score="-0.00549280207210038">
												<SimplePredicate field="cnt_inq_app_12mth.f_.1" operator="isMissing"/>
											</Node>
											<Node id="6" score="-0.0017854512255212921">
												<SimplePredicate field="cnt_inq_app_12mth.f_.1" operator="lessThan" value="0.5"/>
											</Node>
											<Node id="7" score="-0.013792212490010385">
												<SimplePredicate field="cnt_inq_app_12mth.f_.1" operator="greaterOrEqual" value="0.5"/>
											</Node>
										</Node>
									</Node>
								</Node>
							</TreeModel>
						</Segment>
						<Segment id="24">
							<True/>
							<TreeModel functionName="regression" splitCharacteristic="multiSplit">
								<MiningSchema>
									<MiningField name="Marital_Status_离婚"/>
									<MiningField name="cnt_inq_app_12mth.f_.6"/>
									<MiningField name="Net_Fractn_house_Loan_Burden.f_无住房贷款"/>
								</MiningSchema>
								<Node id="1">
									<True/>
									<Node id="10" score="-7.423552532552828E-4">
										<SimplePredicate field="Net_Fractn_house_Loan_Burden.f_无住房贷款" operator="isMissing"/>
									</Node>
									<Node id="2" score="-0.006859912253348088">
										<SimplePredicate field="Net_Fractn_house_Loan_Burden.f_无住房贷款" operator="lessThan" value="0.5"/>
									</Node>
									<Node id="3">
										<SimplePredicate field="Net_Fractn_house_Loan_Burden.f_无住房贷款" operator="greaterOrEqual" value="0.5"/>
										<Node id="9" score="0.003302310531930043">
											<SimplePredicate field="Marital_Status_离婚" operator="isMissing"/>
										</Node>
										<Node id="4">
											<SimplePredicate field="Marital_Status_离婚" operator="lessThan" value="0.5"/>
											<Node id="7" score="0.0014521750129793938">
												<SimplePredicate field="cnt_inq_app_12mth.f_.6" operator="isMissing"/>
											</Node>
											<Node id="5" score="-0.0015382493427328137">
												<SimplePredicate field="cnt_inq_app_12mth.f_.6" operator="lessThan" value="0.5"/>
											</Node>
											<Node id="6" score="0.013947876785062546">
												<SimplePredicate field="cnt_inq_app_12mth.f_.6" operator="greaterOrEqual" value="0.5"/>
											</Node>
										</Node>
										<Node id="8" score="0.019726982996083768">
											<SimplePredicate field="Marital_Status_离婚" operator="greaterOrEqual" value="0.5"/>
										</Node>
									</Node>
								</Node>
							</TreeModel>
						</Segment>
						<Segment id="25">
							<True/>
							<TreeModel functionName="regression" splitCharacteristic="multiSplit">
								<MiningSchema>
									<MiningField name="Marital_Status_已婚"/>
									<MiningField name="max_utilization_of_cc.f_.0.40."/>
									<MiningField name="Max_Delq_l12m.f_.1.2."/>
								</MiningSchema>
								<Node id="1">
									<True/>
									<Node id="10" score="-5.53924311780325E-4">
										<SimplePredicate field="Marital_Status_已婚" operator="isMissing"/>
									</Node>
									<Node id="2">
										<SimplePredicate field="Marital_Status_已婚" operator="lessThan" value="0.5"/>
										<Node id="5" score="0.007540128597941709">
											<SimplePredicate field="max_utilization_of_cc.f_.0.40." operator="isMissing"/>
										</Node>
										<Node id="3" score="0.01097448167401346">
											<SimplePredicate field="max_utilization_of_cc.f_.0.40." operator="lessThan" value="0.5"/>
										</Node>
										<Node id="4" score="-0.007746109603397272">
											<SimplePredicate field="max_utilization_of_cc.f_.0.40." operator="greaterOrEqual" value="0.5"/>
										</Node>
									</Node>
									<Node id="6">
										<SimplePredicate field="Marital_Status_已婚" operator="greaterOrEqual" value="0.5"/>
										<Node id="9" score="-0.004831769765968016">
											<SimplePredicate field="Max_Delq_l12m.f_.1.2." operator="isMissing"/>
										</Node>
										<Node id="7" score="-0.007246165967683754">
											<SimplePredicate field="Max_Delq_l12m.f_.1.2." operator="lessThan" value="0.5"/>
										</Node>
										<Node id="8" score="0.011159231164236219">
											<SimplePredicate field="Max_Delq_l12m.f_.1.2." operator="greaterOrEqual" value="0.5"/>
										</Node>
									</Node>
								</Node>
							</TreeModel>
						</Segment>
						<Segment id="26">
							<True/>
							<TreeModel functionName="regression" splitCharacteristic="multiSplit">
								<MiningSchema>
									<MiningField name="month3_all_number.f_ELSE"/>
									<MiningField name="Max_Delq_l12m.f_.1.2."/>
									<MiningField name="mobile_online_time_24个月以上"/>
								</MiningSchema>
								<Node id="1">
									<True/>
									<Node id="10" score="-0.001015660748134915">
										<SimplePredicate field="mobile_online_time_24个月以上" operator="isMissing"/>
									</Node>
									<Node id="2" score="0.01201928090153494">
										<SimplePredicate field="mobile_online_time_24个月以上" operator="lessThan" value="0.5"/>
									</Node>
									<Node id="3">
										<SimplePredicate field="mobile_online_time_24个月以上" operator="greaterOrEqual" value="0.5"/>
										<Node id="9" score="-0.0038837435086844277">
											<SimplePredicate field="Max_Delq_l12m.f_.1.2." operator="isMissing"/>
										</Node>
										<Node id="4">
											<SimplePredicate field="Max_Delq_l12m.f_.1.2." operator="lessThan" value="0.5"/>
											<Node id="7" score="-0.0063152243562471354">
												<SimplePredicate field="month3_all_number.f_ELSE" operator="isMissing"/>
											</Node>
											<Node id="5" score="0.006236839627177376">
												<SimplePredicate field="month3_all_number.f_ELSE" operator="lessThan" value="0.5"/>
											</Node>
											<Node id="6" score="-0.008152743001243301">
												<SimplePredicate field="month3_all_number.f_ELSE" operator="greaterOrEqual" value="0.5"/>
											</Node>
										</Node>
										<Node id="8" score="0.00924153174612009">
											<SimplePredicate field="Max_Delq_l12m.f_.1.2." operator="greaterOrEqual" value="0.5"/>
										</Node>
									</Node>
								</Node>
							</TreeModel>
						</Segment>
						<Segment id="27">
							<True/>
							<TreeModel functionName="regression" splitCharacteristic="multiSplit">
								<MiningSchema>
									<MiningField name="max_utilization_of_cc.f_.0.40."/>
									<MiningField name="Max_Delq_l12m.f_.1.2."/>
									<MiningField name="mobile_online_time_24个月以上"/>
								</MiningSchema>
								<Node id="1">
									<True/>
									<Node id="10" score="1.3156565846048827E-4">
										<SimplePredicate field="Max_Delq_l12m.f_.1.2." operator="isMissing"/>
									</Node>
									<Node id="2">
										<SimplePredicate field="Max_Delq_l12m.f_.1.2." operator="lessThan" value="0.5"/>
										<Node id="5" score="-0.002511050059679918">
											<SimplePredicate field="mobile_online_time_24个月以上" operator="isMissing"/>
										</Node>
										<Node id="3" score="0.011896353629884065">
											<SimplePredicate field="mobile_online_time_24个月以上" operator="lessThan" value="0.5"/>
										</Node>
										<Node id="4" score="-0.005402588321983336">
											<SimplePredicate field="mobile_online_time_24个月以上" operator="greaterOrEqual" value="0.5"/>
										</Node>
									</Node>
									<Node id="6">
										<SimplePredicate field="Max_Delq_l12m.f_.1.2." operator="greaterOrEqual" value="0.5"/>
										<Node id="9" score="0.015805010607431173">
											<SimplePredicate field="max_utilization_of_cc.f_.0.40." operator="isMissing"/>
										</Node>
										<Node id="7" score="0.020584890602595034">
											<SimplePredicate field="max_utilization_of_cc.f_.0.40." operator="lessThan" value="0.5"/>
										</Node>
										<Node id="8" score="-0.007138413369355379">
											<SimplePredicate field="max_utilization_of_cc.f_.0.40." operator="greaterOrEqual" value="0.5"/>
										</Node>
									</Node>
								</Node>
							</TreeModel>
						</Segment>
						<Segment id="28">
							<True/>
							<TreeModel functionName="regression" splitCharacteristic="multiSplit">
								<MiningSchema>
									<MiningField name="Net_Fractn_house_Loan_Burden.f_无贷款"/>
									<MiningField name="max_utilization_of_cc.f_..95"/>
									<MiningField name="mobile_online_time_24个月以上"/>
								</MiningSchema>
								<Node id="1">
									<True/>
									<Node id="10" score="-6.30531076796377E-4">
										<SimplePredicate field="mobile_online_time_24个月以上" operator="isMissing"/>
									</Node>
									<Node id="2" score="0.012080465681662083">
										<SimplePredicate field="mobile_online_time_24个月以上" operator="lessThan" value="0.5"/>
									</Node>
									<Node id="3">
										<SimplePredicate field="mobile_online_time_24个月以上" operator="greaterOrEqual" value="0.5"/>
										<Node id="9" score="-0.0038132223335799104">
											<SimplePredicate field="max_utilization_of_cc.f_..95" operator="isMissing"/>
										</Node>
										<Node id="4" score="-0.006648353881652214">
											<SimplePredicate field="max_utilization_of_cc.f_..95" operator="lessThan" value="0.5"/>
										</Node>
										<Node id="5">
											<SimplePredicate field="max_utilization_of_cc.f_..95" operator="greaterOrEqual" value="0.5"/>
											<Node id="8" score="0.008053175032948523">
												<SimplePredicate field="Net_Fractn_house_Loan_Burden.f_无贷款" operator="isMissing"/>
											</Node>
											<Node id="6" score="0.016649089556433364">
												<SimplePredicate field="Net_Fractn_house_Loan_Burden.f_无贷款" operator="lessThan" value="0.5"/>
											</Node>
											<Node id="7" score="-0.00757576046429664">
												<SimplePredicate field="Net_Fractn_house_Loan_Burden.f_无贷款" operator="greaterOrEqual" value="0.5"/>
											</Node>
										</Node>
									</Node>
								</Node>
							</TreeModel>
						</Segment>
						<Segment id="29">
							<True/>
							<TreeModel functionName="regression" splitCharacteristic="multiSplit">
								<MiningSchema>
									<MiningField name="max_utilization_of_cc.f_.0.40."/>
									<MiningField name="mobile_online_time_12.24个月"/>
									<MiningField name="mobile_online_time_24个月以上"/>
								</MiningSchema>
								<Node id="1">
									<True/>
									<Node id="10" score="-3.146096071244492E-5">
										<SimplePredicate field="mobile_online_time_24个月以上" operator="isMissing"/>
									</Node>
									<Node id="2">
										<SimplePredicate field="mobile_online_time_24个月以上" operator="lessThan" value="0.5"/>
										<Node id="5" score="0.01093987753300081">
											<SimplePredicate field="mobile_online_time_12.24个月" operator="isMissing"/>
										</Node>
										<Node id="3" score="0.02086529749150189">
											<SimplePredicate field="mobile_online_time_12.24个月" operator="lessThan" value="0.5"/>
										</Node>
										<Node id="4" score="0.0025879997630425854">
											<SimplePredicate field="mobile_online_time_12.24个月" operator="greaterOrEqual" value="0.5"/>
										</Node>
									</Node>
									<Node id="6">
										<SimplePredicate field="mobile_online_time_24个月以上" operator="greaterOrEqual" value="0.5"/>
										<Node id="9" score="-0.002568477978401115">
											<SimplePredicate field="max_utilization_of_cc.f_.0.40." operator="isMissing"/>
										</Node>
										<Node id="7" score="1.717806933573608E-5">
											<SimplePredicate field="max_utilization_of_cc.f_.0.40." operator="lessThan" value="0.5"/>
										</Node>
										<Node id="8" score="-0.011790048498301772">
											<SimplePredicate field="max_utilization_of_cc.f_.0.40." operator="greaterOrEqual" value="0.5"/>
										</Node>
									</Node>
								</Node>
							</TreeModel>
						</Segment>
						<Segment id="30">
							<True/>
							<TreeModel functionName="regression" splitCharacteristic="multiSplit">
								<MiningSchema>
									<MiningField name="Marital_Status_已婚"/>
									<MiningField name="Net_Fractn_house_Loan_Burden.f_无贷款"/>
									<MiningField name="mobile_online_time_24个月以上"/>
								</MiningSchema>
								<Node id="1">
									<True/>
									<Node id="10" score="5.653343328793979E-4">
										<SimplePredicate field="mobile_online_time_24个月以上" operator="isMissing"/>
									</Node>
									<Node id="2" score="0.015030645412086588">
										<SimplePredicate field="mobile_online_time_24个月以上" operator="lessThan" value="0.5"/>
									</Node>
									<Node id="3">
										<SimplePredicate field="mobile_online_time_24个月以上" operator="greaterOrEqual" value="0.5"/>
										<Node id="9" score="-0.0026711964565322563">
											<SimplePredicate field="Marital_Status_已婚" operator="isMissing"/>
										</Node>
										<Node id="4">
											<SimplePredicate field="Marital_Status_已婚" operator="lessThan" value="0.5"/>
											<Node id="7" score="0.00646771834607823">
												<SimplePredicate field="Net_Fractn_house_Loan_Burden.f_无贷款" operator="isMissing"/>
											</Node>
											<Node id="5" score="0.014315907077304088">
												<SimplePredicate field="Net_Fractn_house_Loan_Burden.f_无贷款" operator="lessThan" value="0.5"/>
											</Node>
											<Node id="6" score="-0.008219606279501584">
												<SimplePredicate field="Net_Fractn_house_Loan_Burden.f_无贷款" operator="greaterOrEqual" value="0.5"/>
											</Node>
										</Node>
										<Node id="8" score="-0.006699533902419773">
											<SimplePredicate field="Marital_Status_已婚" operator="greaterOrEqual" value="0.5"/>
										</Node>
									</Node>
								</Node>
							</TreeModel>
						</Segment>
						<Segment id="31">
							<True/>
							<TreeModel functionName="regression" splitCharacteristic="multiSplit">
								<MiningSchema>
									<MiningField name="Net_Fractn_house_Loan_Burden.f_无住房贷款"/>
									<MiningField name="max_utilization_of_cc.f_..95"/>
									<MiningField name="mobile_online_time_24个月以上"/>
								</MiningSchema>
								<Node id="1">
									<True/>
									<Node id="10" score="-1.4637708535426394E-4">
										<SimplePredicate field="mobile_online_time_24个月以上" operator="isMissing"/>
									</Node>
									<Node id="2" score="0.013019646387445336">
										<SimplePredicate field="mobile_online_time_24个月以上" operator="lessThan" value="0.5"/>
									</Node>
									<Node id="3">
										<SimplePredicate field="mobile_online_time_24个月以上" operator="greaterOrEqual" value="0.5"/>
										<Node id="9" score="-0.002898372969142451">
											<SimplePredicate field="max_utilization_of_cc.f_..95" operator="isMissing"/>
										</Node>
										<Node id="4">
											<SimplePredicate field="max_utilization_of_cc.f_..95" operator="lessThan" value="0.5"/>
											<Node id="7" score="-0.0058648119726410035">
												<SimplePredicate field="Net_Fractn_house_Loan_Burden.f_无住房贷款" operator="isMissing"/>
											</Node>
											<Node id="5" score="-0.012268181317121898">
												<SimplePredicate field="Net_Fractn_house_Loan_Burden.f_无住房贷款" operator="lessThan" value="0.5"/>
											</Node>
											<Node id="6" score="-0.0013089721439447605">
												<SimplePredicate field="Net_Fractn_house_Loan_Burden.f_无住房贷款" operator="greaterOrEqual" value="0.5"/>
											</Node>
										</Node>
										<Node id="8" score="0.007930166610062055">
											<SimplePredicate field="max_utilization_of_cc.f_..95" operator="greaterOrEqual" value="0.5"/>
										</Node>
									</Node>
								</Node>
							</TreeModel>
						</Segment>
						<Segment id="32">
							<True/>
							<TreeModel functionName="regression" splitCharacteristic="multiSplit">
								<MiningSchema>
									<MiningField name="Marital_Status_已婚"/>
									<MiningField name="cnt_inq_app_12mth.f_else"/>
									<MiningField name="Net_Fractn_house_Loan_Burden.f_无贷款"/>
								</MiningSchema>
								<Node id="1">
									<True/>
									<Node id="10" score="-3.2470535767868463E-4">
										<SimplePredicate field="Net_Fractn_house_Loan_Burden.f_无贷款" operator="isMissing"/>
									</Node>
									<Node id="2">
										<SimplePredicate field="Net_Fractn_house_Loan_Burden.f_无贷款" operator="lessThan" value="0.5"/>
										<Node id="8" score="0.0031682053988144176">
											<SimplePredicate field="Marital_Status_已婚" operator="isMissing"/>
										</Node>
										<Node id="3" score="0.01308671057320563">
											<SimplePredicate field="Marital_Status_已婚" operator="lessThan" value="0.5"/>
										</Node>
										<Node id="4">
											<SimplePredicate field="Marital_Status_已婚" operator="greaterOrEqual" value="0.5"/>
											<Node id="7" score="-0.001655007840602755">
												<SimplePredicate field="cnt_inq_app_12mth.f_else" operator="isMissing"/>
											</Node>
											<Node id="5" score="-0.0027329019461381724">
												<SimplePredicate field="cnt_inq_app_12mth.f_else" operator="lessThan" value="0.5"/>
											</Node>
											<Node id="6" score="0.03328672608050368">
												<SimplePredicate field="cnt_inq_app_12mth.f_else" operator="greaterOrEqual" value="0.5"/>
											</Node>
										</Node>
									</Node>
									<Node id="9" score="-0.010333238102245458">
										<SimplePredicate field="Net_Fractn_house_Loan_Burden.f_无贷款" operator="greaterOrEqual" value="0.5"/>
									</Node>
								</Node>
							</TreeModel>
						</Segment>
						<Segment id="33">
							<True/>
							<TreeModel functionName="regression" splitCharacteristic="multiSplit">
								<MiningSchema>
									<MiningField name="cnt_inq_app_12mth.f_.1"/>
									<MiningField name="max_utilization_of_cc.f_.0.40."/>
									<MiningField name="mobile_online_time_24个月以上"/>
								</MiningSchema>
								<Node id="1">
									<True/>
									<Node id="10" score="4.031394730686513E-4">
										<SimplePredicate field="mobile_online_time_24个月以上" operator="isMissing"/>
									</Node>
									<Node id="2" score="0.013397469027826906">
										<SimplePredicate field="mobile_online_time_24个月以上" operator="lessThan" value="0.5"/>
									</Node>
									<Node id="3">
										<SimplePredicate field="mobile_online_time_24个月以上" operator="greaterOrEqual" value="0.5"/>
										<Node id="9" score="-0.0025528225172504024">
											<SimplePredicate field="max_utilization_of_cc.f_.0.40." operator="isMissing"/>
										</Node>
										<Node id="4">
											<SimplePredicate field="max_utilization_of_cc.f_.0.40." operator="lessThan" value="0.5"/>
											<Node id="7" score="4.4408975177551277E-4">
												<SimplePredicate field="cnt_inq_app_12mth.f_.1" operator="isMissing"/>
											</Node>
											<Node id="5" score="0.004224879989037844">
												<SimplePredicate field="cnt_inq_app_12mth.f_.1" operator="lessThan" value="0.5"/>
											</Node>
											<Node id="6" score="-0.009085573312008991">
												<SimplePredicate field="cnt_inq_app_12mth.f_.1" operator="greaterOrEqual" value="0.5"/>
											</Node>
										</Node>
										<Node id="8" score="-0.01347773674618175">
											<SimplePredicate field="max_utilization_of_cc.f_.0.40." operator="greaterOrEqual" value="0.5"/>
										</Node>
									</Node>
								</Node>
							</TreeModel>
						</Segment>
						<Segment id="34">
							<True/>
							<TreeModel functionName="regression" splitCharacteristic="multiSplit">
								<MiningSchema>
									<MiningField name="max_utilization_of_cc.f_..95"/>
									<MiningField name="mobile_online_time_12.24个月"/>
									<MiningField name="mobile_online_time_24个月以上"/>
								</MiningSchema>
								<Node id="1">
									<True/>
									<Node id="10" score="-0.002775525724210399">
										<SimplePredicate field="mobile_online_time_24个月以上" operator="isMissing"/>
									</Node>
									<Node id="2">
										<SimplePredicate field="mobile_online_time_24个月以上" operator="lessThan" value="0.5"/>
										<Node id="5" score="0.011893726701416732">
											<SimplePredicate field="mobile_online_time_12.24个月" operator="isMissing"/>
										</Node>
										<Node id="3" score="0.020241886663334294">
											<SimplePredicate field="mobile_online_time_12.24个月" operator="lessThan" value="0.5"/>
										</Node>
										<Node id="4" score="0.002299572715332368">
											<SimplePredicate field="mobile_online_time_12.24个月" operator="greaterOrEqual" value="0.5"/>
										</Node>
									</Node>
									<Node id="6">
										<SimplePredicate field="mobile_online_time_24个月以上" operator="greaterOrEqual" value="0.5"/>
										<Node id="9" score="-0.005976089889801774">
											<SimplePredicate field="max_utilization_of_cc.f_..95" operator="isMissing"/>
										</Node>
										<Node id="7" score="-0.009045114297013119">
											<SimplePredicate field="max_utilization_of_cc.f_..95" operator="lessThan" value="0.5"/>
										</Node>
										<Node id="8" score="0.005219365342138207">
											<SimplePredicate field="max_utilization_of_cc.f_..95" operator="greaterOrEqual" value="0.5"/>
										</Node>
									</Node>
								</Node>
							</TreeModel>
						</Segment>
						<Segment id="35">
							<True/>
							<TreeModel functionName="regression" splitCharacteristic="multiSplit">
								<MiningSchema>
									<MiningField name="Marital_Status_离婚"/>
									<MiningField name="max_utilization_of_cc.f_.0.40."/>
									<MiningField name="mobile_online_time_.9999"/>
								</MiningSchema>
								<Node id="1">
									<True/>
									<Node id="10" score="-1.2841147516774555E-4">
										<SimplePredicate field="mobile_online_time_.9999" operator="isMissing"/>
									</Node>
									<Node id="2">
										<SimplePredicate field="mobile_online_time_.9999" operator="lessThan" value="0.5"/>
										<Node id="8" score="-0.0014572272034832179">
											<SimplePredicate field="max_utilization_of_cc.f_.0.40." operator="isMissing"/>
										</Node>
										<Node id="3">
											<SimplePredicate field="max_utilization_of_cc.f_.0.40." operator="lessThan" value="0.5"/>
											<Node id="6" score="0.0014181619041153698">
												<SimplePredicate field="Marital_Status_离婚" operator="isMissing"/>
											</Node>
											<Node id="4" score="-1.5940980703616063E-5">
												<SimplePredicate field="Marital_Status_离婚" operator="lessThan" value="0.5"/>
											</Node>
											<Node id="5" score="0.016327420197233506">
												<SimplePredicate field="Marital_Status_离婚" operator="greaterOrEqual" value="0.5"/>
											</Node>
										</Node>
										<Node id="7" score="-0.012590144004698262">
											<SimplePredicate field="max_utilization_of_cc.f_.0.40." operator="greaterOrEqual" value="0.5"/>
										</Node>
									</Node>
									<Node id="9" score="0.022823860195735863">
										<SimplePredicate field="mobile_online_time_.9999" operator="greaterOrEqual" value="0.5"/>
									</Node>
								</Node>
							</TreeModel>
						</Segment>
						<Segment id="36">
							<True/>
							<TreeModel functionName="regression" splitCharacteristic="multiSplit">
								<MiningSchema>
									<MiningField name="max_utilization_of_cc.f_..95"/>
									<MiningField name="mobile_online_time_12.24个月"/>
									<MiningField name="mobile_online_time_24个月以上"/>
								</MiningSchema>
								<Node id="1">
									<True/>
									<Node id="10" score="9.46779604648637E-4">
										<SimplePredicate field="mobile_online_time_24个月以上" operator="isMissing"/>
									</Node>
									<Node id="2">
										<SimplePredicate field="mobile_online_time_24个月以上" operator="lessThan" value="0.5"/>
										<Node id="5" score="0.01320727353218004">
											<SimplePredicate field="mobile_online_time_12.24个月" operator="isMissing"/>
										</Node>
										<Node id="3" score="0.023759827820551836">
											<SimplePredicate field="mobile_online_time_12.24个月" operator="lessThan" value="0.5"/>
										</Node>
										<Node id="4" score="0.006213138713142921">
											<SimplePredicate field="mobile_online_time_12.24个月" operator="greaterOrEqual" value="0.5"/>
										</Node>
									</Node>
									<Node id="6">
										<SimplePredicate field="mobile_online_time_24个月以上" operator="greaterOrEqual" value="0.5"/>
										<Node id="9" score="-0.0017056419258157968">
											<SimplePredicate field="max_utilization_of_cc.f_..95" operator="isMissing"/>
										</Node>
										<Node id="7" score="-0.0046235730272260415">
											<SimplePredicate field="max_utilization_of_cc.f_..95" operator="lessThan" value="0.5"/>
										</Node>
										<Node id="8" score="0.008959190761732913">
											<SimplePredicate field="max_utilization_of_cc.f_..95" operator="greaterOrEqual" value="0.5"/>
										</Node>
									</Node>
								</Node>
							</TreeModel>
						</Segment>
						<Segment id="37">
							<True/>
							<TreeModel functionName="regression" splitCharacteristic="multiSplit">
								<MiningSchema>
									<MiningField name="Marital_Status_离婚"/>
									<MiningField name="month3_all_number.f_ELSE"/>
									<MiningField name="max_utilization_of_cc.f_.0.40."/>
								</MiningSchema>
								<Node id="1">
									<True/>
									<Node id="10" score="8.119734296171746E-5">
										<SimplePredicate field="max_utilization_of_cc.f_.0.40." operator="isMissing"/>
									</Node>
									<Node id="2">
										<SimplePredicate field="max_utilization_of_cc.f_.0.40." operator="lessThan" value="0.5"/>
										<Node id="8" score="0.0030703787004274703">
											<SimplePredicate field="month3_all_number.f_ELSE" operator="isMissing"/>
										</Node>
										<Node id="3" score="0.016512261542926954">
											<SimplePredicate field="month3_all_number.f_ELSE" operator="lessThan" value="0.5"/>
										</Node>
										<Node id="4">
											<SimplePredicate field="month3_all_number.f_ELSE" operator="greaterOrEqual" value="0.5"/>
											<Node id="7" score="7.544592764089099E-4">
												<SimplePredicate field="Marital_Status_离婚" operator="isMissing"/>
											</Node>
											<Node id="5" score="-0.0012812089156145458">
												<SimplePredicate field="Marital_Status_离婚" operator="lessThan" value="0.5"/>
											</Node>
											<Node id="6" score="0.019556630940916465">
												<SimplePredicate field="Marital_Status_离婚" operator="greaterOrEqual" value="0.5"/>
											</Node>
										</Node>
									</Node>
									<Node id="9" score="-0.013619217212089649">
										<SimplePredicate field="max_utilization_of_cc.f_.0.40." operator="greaterOrEqual" value="0.5"/>
									</Node>
								</Node>
							</TreeModel>
						</Segment>
						<Segment id="38">
							<True/>
							<TreeModel functionName="regression" splitCharacteristic="multiSplit">
								<MiningSchema>
									<MiningField name="Marital_Status_离婚"/>
									<MiningField name="month3_all_number.f_ELSE"/>
									<MiningField name="mobile_online_time_.9999"/>
								</MiningSchema>
								<Node id="1">
									<True/>
									<Node id="10" score="8.002375291414237E-4">
										<SimplePredicate field="month3_all_number.f_ELSE" operator="isMissing"/>
									</Node>
									<Node id="2" score="0.01528088892269978">
										<SimplePredicate field="month3_all_number.f_ELSE" operator="lessThan" value="0.5"/>
									</Node>
									<Node id="3">
										<SimplePredicate field="month3_all_number.f_ELSE" operator="greaterOrEqual" value="0.5"/>
										<Node id="9" score="-0.0014949665822294972">
											<SimplePredicate field="mobile_online_time_.9999" operator="isMissing"/>
										</Node>
										<Node id="4">
											<SimplePredicate field="mobile_online_time_.9999" operator="lessThan" value="0.5"/>
											<Node id="7" score="-0.0024144003507932136">
												<SimplePredicate field="Marital_Status_离婚" operator="isMissing"/>
											</Node>
											<Node id="5" score="-0.0040257212011062735">
												<SimplePredicate field="Marital_Status_离婚" operator="lessThan" value="0.5"/>
											</Node>
											<Node id="6" score="0.010218355115661182">
												<SimplePredicate field="Marital_Status_离婚" operator="greaterOrEqual" value="0.5"/>
											</Node>
										</Node>
										<Node id="8" score="0.018169052403504173">
											<SimplePredicate field="mobile_online_time_.9999" operator="greaterOrEqual" value="0.5"/>
										</Node>
									</Node>
								</Node>
							</TreeModel>
						</Segment>
						<Segment id="39">
							<True/>
							<TreeModel functionName="regression" splitCharacteristic="multiSplit">
								<MiningSchema>
									<MiningField name="Current_Residence_Province_area2"/>
									<MiningField name="max_utilization_of_cc.f_..95"/>
									<MiningField name="mobile_online_time_24个月以上"/>
								</MiningSchema>
								<Node id="1">
									<True/>
									<Node id="10" score="4.446958508598739E-4">
										<SimplePredicate field="mobile_online_time_24个月以上" operator="isMissing"/>
									</Node>
									<Node id="2" score="0.010914459951719711">
										<SimplePredicate field="mobile_online_time_24个月以上" operator="lessThan" value="0.5"/>
									</Node>
									<Node id="3">
										<SimplePredicate field="mobile_online_time_24个月以上" operator="greaterOrEqual" value="0.5"/>
										<Node id="9" score="-0.0019566261906217406">
											<SimplePredicate field="max_utilization_of_cc.f_..95" operator="isMissing"/>
										</Node>
										<Node id="4" score="-0.004880368298018862">
											<SimplePredicate field="max_utilization_of_cc.f_..95" operator="lessThan" value="0.5"/>
										</Node>
										<Node id="5">
											<SimplePredicate field="max_utilization_of_cc.f_..95" operator="greaterOrEqual" value="0.5"/>
											<Node id="8" score="0.007867147290232588">
												<SimplePredicate field="Current_Residence_Province_area2" operator="isMissing"/>
											</Node>
											<Node id="6" score="0.013618339868181565">
												<SimplePredicate field="Current_Residence_Province_area2" operator="lessThan" value="0.5"/>
											</Node>
											<Node id="7" score="-0.005135548972956398">
												<SimplePredicate field="Current_Residence_Province_area2" operator="greaterOrEqual" value="0.5"/>
											</Node>
										</Node>
									</Node>
								</Node>
							</TreeModel>
						</Segment>
						<Segment id="40">
							<True/>
							<TreeModel functionName="regression" splitCharacteristic="multiSplit">
								<MiningSchema>
									<MiningField name="Marital_Status_已婚"/>
									<MiningField name="month3_all_number.f_ELSE"/>
									<MiningField name="max_utilization_of_cc.f_.75.95."/>
								</MiningSchema>
								<Node id="1">
									<True/>
									<Node id="10" score="-7.456296530961185E-4">
										<SimplePredicate field="Marital_Status_已婚" operator="isMissing"/>
									</Node>
									<Node id="2">
										<SimplePredicate field="Marital_Status_已婚" operator="lessThan" value="0.5"/>
										<Node id="8" score="0.006513589419210962">
											<SimplePredicate field="month3_all_number.f_ELSE" operator="isMissing"/>
										</Node>
										<Node id="3" score="0.02306797085470733">
											<SimplePredicate field="month3_all_number.f_ELSE" operator="lessThan" value="0.5"/>
										</Node>
										<Node id="4">
											<SimplePredicate field="month3_all_number.f_ELSE" operator="greaterOrEqual" value="0.5"/>
											<Node id="7" score="0.0033300545277693537">
												<SimplePredicate field="max_utilization_of_cc.f_.75.95." operator="isMissing"/>
											</Node>
											<Node id="5" score="0.005694364092866841">
												<SimplePredicate field="max_utilization_of_cc.f_.75.95." operator="lessThan" value="0.5"/>
											</Node>
											<Node id="6" score="-0.017357654166833665">
												<SimplePredicate field="max_utilization_of_cc.f_.75.95." operator="greaterOrEqual" value="0.5"/>
											</Node>
										</Node>
									</Node>
									<Node id="9" score="-0.00460338607437931">
										<SimplePredicate field="Marital_Status_已婚" operator="greaterOrEqual" value="0.5"/>
									</Node>
								</Node>
							</TreeModel>
						</Segment>
						<Segment id="41">
							<True/>
							<TreeModel functionName="regression" splitCharacteristic="multiSplit">
								<MiningSchema>
									<MiningField name="Max_Delq_l12m.f_.1.2."/>
									<MiningField name="mobile_online_time_12.24个月"/>
									<MiningField name="mobile_online_time_24个月以上"/>
								</MiningSchema>
								<Node id="1">
									<True/>
									<Node id="10" score="8.234908001581429E-4">
										<SimplePredicate field="mobile_online_time_24个月以上" operator="isMissing"/>
									</Node>
									<Node id="2">
										<SimplePredicate field="mobile_online_time_24个月以上" operator="lessThan" value="0.5"/>
										<Node id="5" score="0.010979414225249196">
											<SimplePredicate field="mobile_online_time_12.24个月" operator="isMissing"/>
										</Node>
										<Node id="3" score="0.022079940023504042">
											<SimplePredicate field="mobile_online_time_12.24个月" operator="lessThan" value="0.5"/>
										</Node>
										<Node id="4" score="0.002872288642254082">
											<SimplePredicate field="mobile_online_time_12.24个月" operator="greaterOrEqual" value="0.5"/>
										</Node>
									</Node>
									<Node id="6">
										<SimplePredicate field="mobile_online_time_24个月以上" operator="greaterOrEqual" value="0.5"/>
										<Node id="9" score="-0.0015826818267095832">
											<SimplePredicate field="Max_Delq_l12m.f_.1.2." operator="isMissing"/>
										</Node>
										<Node id="7" score="-0.0037472809253490825">
											<SimplePredicate field="Max_Delq_l12m.f_.1.2." operator="lessThan" value="0.5"/>
										</Node>
										<Node id="8" score="0.010757764580998077">
											<SimplePredicate field="Max_Delq_l12m.f_.1.2." operator="greaterOrEqual" value="0.5"/>
										</Node>
									</Node>
								</Node>
							</TreeModel>
						</Segment>
						<Segment id="42">
							<True/>
							<TreeModel functionName="regression" splitCharacteristic="multiSplit">
								<MiningSchema>
									<MiningField name="cnt_inq_app_12mth.f_.12"/>
									<MiningField name="Max_Delq_l12m.f_.1.2."/>
									<MiningField name="mobile_online_time_24个月以上"/>
								</MiningSchema>
								<Node id="1">
									<True/>
									<Node id="10" score="1.4023821585158012E-4">
										<SimplePredicate field="mobile_online_time_24个月以上" operator="isMissing"/>
									</Node>
									<Node id="2" score="0.011885939426868955">
										<SimplePredicate field="mobile_online_time_24个月以上" operator="lessThan" value="0.5"/>
									</Node>
									<Node id="3">
										<SimplePredicate field="mobile_online_time_24个月以上" operator="greaterOrEqual" value="0.5"/>
										<Node id="9" score="-0.002915853321811248">
											<SimplePredicate field="Max_Delq_l12m.f_.1.2." operator="isMissing"/>
										</Node>
										<Node id="4">
											<SimplePredicate field="Max_Delq_l12m.f_.1.2." operator="lessThan" value="0.5"/>
											<Node id="7" score="-0.005218304560198724">
												<SimplePredicate field="cnt_inq_app_12mth.f_.12" operator="isMissing"/>
											</Node>
											<Node id="5" score="-0.006272117632976476">
												<SimplePredicate field="cnt_inq_app_12mth.f_.12" operator="lessThan" value="0.5"/>
											</Node>
											<Node id="6" score="0.019402600867426907">
												<SimplePredicate field="cnt_inq_app_12mth.f_.12" operator="greaterOrEqual" value="0.5"/>
											</Node>
										</Node>
										<Node id="8" score="0.00918330220540137">
											<SimplePredicate field="Max_Delq_l12m.f_.1.2." operator="greaterOrEqual" value="0.5"/>
										</Node>
									</Node>
								</Node>
							</TreeModel>
						</Segment>
						<Segment id="43">
							<True/>
							<TreeModel functionName="regression" splitCharacteristic="multiSplit">
								<MiningSchema>
									<MiningField name="SEX_女性"/>
									<MiningField name="Marital_Status_已婚"/>
									<MiningField name="mobile_online_time_24个月以上"/>
								</MiningSchema>
								<Node id="1">
									<True/>
									<Node id="10" score="-9.121362532050352E-4">
										<SimplePredicate field="mobile_online_time_24个月以上" operator="isMissing"/>
									</Node>
									<Node id="2">
										<SimplePredicate field="mobile_online_time_24个月以上" operator="lessThan" value="0.5"/>
										<Node id="5" score="0.010945761439589051">
											<SimplePredicate field="SEX_女性" operator="isMissing"/>
										</Node>
										<Node id="3" score="0.013691604788659857">
											<SimplePredicate field="SEX_女性" operator="lessThan" value="0.5"/>
										</Node>
										<Node id="4" score="-0.017357546927756203">
											<SimplePredicate field="SEX_女性" operator="greaterOrEqual" value="0.5"/>
										</Node>
									</Node>
									<Node id="6">
										<SimplePredicate field="mobile_online_time_24个月以上" operator="greaterOrEqual" value="0.5"/>
										<Node id="9" score="-0.003565273179903255">
											<SimplePredicate field="Marital_Status_已婚" operator="isMissing"/>
										</Node>
										<Node id="7" score="0.0046803165492751">
											<SimplePredicate field="Marital_Status_已婚" operator="lessThan" value="0.5"/>
										</Node>
										<Node id="8" score="-0.00746621361231723">
											<SimplePredicate field="Marital_Status_已婚" operator="greaterOrEqual" value="0.5"/>
										</Node>
									</Node>
								</Node>
							</TreeModel>
						</Segment>
						<Segment id="44">
							<True/>
							<TreeModel functionName="regression" splitCharacteristic="multiSplit">
								<MiningSchema>
									<MiningField name="Marital_Status_离婚"/>
									<MiningField name="Max_Delq_l12m.f_.1.2."/>
									<MiningField name="mobile_online_time_.9999"/>
								</MiningSchema>
								<Node id="1">
									<True/>
									<Node id="10" score="-9.531416987116787E-4">
										<SimplePredicate field="mobile_online_time_.9999" operator="isMissing"/>
									</Node>
									<Node id="2">
										<SimplePredicate field="mobile_online_time_.9999" operator="lessThan" value="0.5"/>
										<Node id="8" score="-0.0019923894418138904">
											<SimplePredicate field="Max_Delq_l12m.f_.1.2." operator="isMissing"/>
										</Node>
										<Node id="3">
											<SimplePredicate field="Max_Delq_l12m.f_.1.2." operator="lessThan" value="0.5"/>
											<Node id="6" score="-0.004295135284877646">
												<SimplePredicate field="Marital_Status_离婚" operator="isMissing"/>
											</Node>
											<Node id="4" score="-0.005980274872136757">
												<SimplePredicate field="Marital_Status_离婚" operator="lessThan" value="0.5"/>
											</Node>
											<Node id="5" score="0.012644952144937625">
												<SimplePredicate field="Marital_Status_离婚" operator="greaterOrEqual" value="0.5"/>
											</Node>
										</Node>
										<Node id="7" score="0.008596879763515787">
											<SimplePredicate field="Max_Delq_l12m.f_.1.2." operator="greaterOrEqual" value="0.5"/>
										</Node>
									</Node>
									<Node id="9" score="0.020590183138028764">
										<SimplePredicate field="mobile_online_time_.9999" operator="greaterOrEqual" value="0.5"/>
									</Node>
								</Node>
							</TreeModel>
						</Segment>
						<Segment id="45">
							<True/>
							<TreeModel functionName="regression" splitCharacteristic="multiSplit">
								<MiningSchema>
									<MiningField name="cnt_inq_app_12mth.f_.1"/>
									<MiningField name="mobile_online_time_12.24个月"/>
									<MiningField name="mobile_online_time_24个月以上"/>
								</MiningSchema>
								<Node id="1">
									<True/>
									<Node id="10" score="-6.664116742689501E-4">
										<SimplePredicate field="cnt_inq_app_12mth.f_.1" operator="isMissing"/>
									</Node>
									<Node id="2">
										<SimplePredicate field="cnt_inq_app_12mth.f_.1" operator="lessThan" value="0.5"/>
										<Node id="8" score="0.003161098435707905">
											<SimplePredicate field="mobile_online_time_24个月以上" operator="isMissing"/>
										</Node>
										<Node id="3">
											<SimplePredicate field="mobile_online_time_24个月以上" operator="lessThan" value="0.5"/>
											<Node id="6" score="0.013442308338129628">
												<SimplePredicate field="mobile_online_time_12.24个月" operator="isMissing"/>
											</Node>
											<Node id="4" score="0.023925963915537862">
												<SimplePredicate field="mobile_online_time_12.24个月" operator="lessThan" value="0.5"/>
											</Node>
											<Node id="5" score="0.005364737647339679">
												<SimplePredicate field="mobile_online_time_12.24个月" operator="greaterOrEqual" value="0.5"/>
											</Node>
										</Node>
										<Node id="7" score="7.314033165360314E-4">
											<SimplePredicate field="mobile_online_time_24个月以上" operator="greaterOrEqual" value="0.5"/>
										</Node>
									</Node>
									<Node id="9" score="-0.009714709633000846">
										<SimplePredicate field="cnt_inq_app_12mth.f_.1" operator="greaterOrEqual" value="0.5"/>
									</Node>
								</Node>
							</TreeModel>
						</Segment>
						<Segment id="46">
							<True/>
							<TreeModel functionName="regression" splitCharacteristic="multiSplit">
								<MiningSchema>
									<MiningField name="Max_Delq_l12m.f_.1.2."/>
									<MiningField name="mobile_online_time_.9999"/>
									<MiningField name="mobile_online_time_0.6个月"/>
								</MiningSchema>
								<Node id="1">
									<True/>
									<Node id="10" score="-5.645591187552324E-4">
										<SimplePredicate field="Max_Delq_l12m.f_.1.2." operator="isMissing"/>
									</Node>
									<Node id="2">
										<SimplePredicate field="Max_Delq_l12m.f_.1.2." operator="lessThan" value="0.5"/>
										<Node id="8" score="-0.0026433735748923087">
											<SimplePredicate field="mobile_online_time_.9999" operator="isMissing"/>
										</Node>
										<Node id="3">
											<SimplePredicate field="mobile_online_time_.9999" operator="lessThan" value="0.5"/>
											<Node id="6" score="-0.003821479877130035">
												<SimplePredicate field="mobile_online_time_0.6个月" operator="isMissing"/>
											</Node>
											<Node id="4" score="-0.004536124363741257">
												<SimplePredicate field="mobile_online_time_0.6个月" operator="lessThan" value="0.5"/>
											</Node>
											<Node id="5" score="0.020873457382435515">
												<SimplePredicate field="mobile_online_time_0.6个月" operator="greaterOrEqual" value="0.5"/>
											</Node>
										</Node>
										<Node id="7" score="0.017198416778585184">
											<SimplePredicate field="mobile_online_time_.9999" operator="greaterOrEqual" value="0.5"/>
										</Node>
									</Node>
									<Node id="9" score="0.010621442478553796">
										<SimplePredicate field="Max_Delq_l12m.f_.1.2." operator="greaterOrEqual" value="0.5"/>
									</Node>
								</Node>
							</TreeModel>
						</Segment>
						<Segment id="47">
							<True/>
							<TreeModel functionName="regression" splitCharacteristic="multiSplit">
								<MiningSchema>
									<MiningField name="month3_all_number.f_ELSE"/>
									<MiningField name="Max_Delq_l12m.f_.1.2."/>
									<MiningField name="mobile_online_time_.9999"/>
								</MiningSchema>
								<Node id="1">
									<True/>
									<Node id="10" score="-1.7675603069028367E-4">
										<SimplePredicate field="month3_all_number.f_ELSE" operator="isMissing"/>
									</Node>
									<Node id="2" score="0.012629398646348733">
										<SimplePredicate field="month3_all_number.f_ELSE" operator="lessThan" value="0.5"/>
									</Node>
									<Node id="3">
										<SimplePredicate field="month3_all_number.f_ELSE" operator="greaterOrEqual" value="0.5"/>
										<Node id="9" score="-0.0025342955515001175">
											<SimplePredicate field="mobile_online_time_.9999" operator="isMissing"/>
										</Node>
										<Node id="4">
											<SimplePredicate field="mobile_online_time_.9999" operator="lessThan" value="0.5"/>
											<Node id="7" score="-0.003404782026812591">
												<SimplePredicate field="Max_Delq_l12m.f_.1.2." operator="isMissing"/>
											</Node>
											<Node id="5" score="-0.005261345398354775">
												<SimplePredicate field="Max_Delq_l12m.f_.1.2." operator="lessThan" value="0.5"/>
											</Node>
											<Node id="6" score="0.005677325277218088">
												<SimplePredicate field="Max_Delq_l12m.f_.1.2." operator="greaterOrEqual" value="0.5"/>
											</Node>
										</Node>
										<Node id="8" score="0.0202376306426742">
											<SimplePredicate field="mobile_online_time_.9999" operator="greaterOrEqual" value="0.5"/>
										</Node>
									</Node>
								</Node>
							</TreeModel>
						</Segment>
						<Segment id="48">
							<True/>
							<TreeModel functionName="regression" splitCharacteristic="multiSplit">
								<MiningSchema>
									<MiningField name="Marital_Status_离婚"/>
									<MiningField name="month3_all_number.f_ELSE"/>
									<MiningField name="Max_Delq_l12m.f_.1.2."/>
								</MiningSchema>
								<Node id="1">
